tree
version=v4
num_class=1
num_tree_per_iteration=1
label_index=0
max_feature_idx=3
objective=regression
feature_names=sell_price weekday month year
feature_infos=[0:30.98] [0:6] [1:12] [2011:2016]
tree_sizes=2777 2895 2874 2864 2860 2890 2877 2902 2875 2870 2941 2880 2912 2862 2877 2873 2927 2880 2853 2901 2884 2960 2930 2889 2870 2990 2952 2870 2982 2911 2976 2913 2997 2886 2991 2977 2925 2882 3000 2899 2942 2998 2974 2897 2988 2867 2954 2962 2889 2973 2881 2942 2975 2911 3015 2910 3026 2918 2884 2989 2911 2908 3014 2982 2875 2962 2901 2874 3028 2959 2852 2849 3020 2932 3014 2841 3030 2947 3022 2971 2968 2845 2929 3019 2967 2965 2953 2970 3009 2911 2950 2822 2930 2842 2982 3031 2805 2989 2920 2821

Tree=0
num_leaves=31
num_cat=0
split_feature=0 0 0 3 3 2 0 0 0 0 2 0 2 1 0 1 3 0 0 0 1 0 3 2 1 2 1 0 2 2
split_gain=76116.4 456172 104498 29944.9 7333.41 9757.51 11005.5 3936.38 3203.09 9466.1 4038.46 4013.61 3123.47 2779 2576.26 2374.07 1900.49 1896.07 1633.52 1596.29 1473.35 1383.76 1190.88 1969.76 1059.51 1045.06 1014.64 954.466 935.13 1186.87
threshold=1.0000000180025095e-35 0.76000000000000012 0.49000000000000005 2012.5000000000002 2011.5000000000002 7.5000000000000009 0.57500000000000007 1.925 0.69000000000000006 0.63000000000000012 6.5000000000000009 0.57500000000000007 10.500000000000002 4.5000000000000009 0.71000000000000008 4.5000000000000009 2013.5000000000002 0.69000000000000006 0.52000000000000013 0.63000000000000012 3.5000000000000004 0.95000000000000007 2013.5000000000002 8.5000000000000018 3.5000000000000004 6.5000000000000009 4.5000000000000009 0.57500000000000007 6.5000000000000009 2.5000000000000004
decision_type=2 2 2 2 2 2 2 2 2 2 2 2 2 2 2 2 2 2 2 2 2 2 2 2 2 2 2 2 2 2
left_child=-1 2 16 4 19 17 -7 21 9 10 18 -12 14 -10 -8 -9 24 25 -5 -4 -19 -3 23 -13 -2 -6 -23 -27 29 -18
right_child=1 7 3 8 5 6 12 15 13 -11 11 22 -14 -15 -16 -17 28 20 -20 -21 -22 26 -24 -25 -26 27 -28 -29 -30 -31
leaf_value=0.86516525217234619 1.2210252238697274 0.95062539519557188 1.2217324187712213 0.86516525217234619 1.2084001450250326 0.86516525217234619 1.2655728614186934 0.8961690385737261 1.0205501251945457 0.90754577500210798 1.0779369931694753 0.86516525217234619 1.0167223461444994 1.0842277541231566 1.0784804697094228 0.90715182707551778 1.3304461555458877 1.043648858864078 1.0819509678310961 1.1511847442166985 1.1765663549461096 0.90873046921638867 0.88996144778807706 1.0382185317158554 1.2895579700258364 1.016507535631664 0.92912431598081802 1.2042781550857089 1.3336706911839693 1.2561246658727843
leaf_weight=73808 1314 2923 2010 90 1456 765 368 171650 5989 2218 736 248 578 2400 368 68978 890 488 2520 1334 364 21275 736 488 988 149 8550 124 1840 1355
leaf_count=73808 1314 2923 2010 90 1456 765 368 171650 5989 2218 736 248 578 2400 368 68978 890 488 2520 1334 364 21275 736 488 988 149 8550 124 1840 1355
internal_value=0.9107 0.921785 1.10749 1.05862 1.13709 1.09655 1.01593 0.901531 1.0179 0.993022 1.03237 0.982602 1.10371 1.03877 1.17203 0.899317 1.28677 1.16148 1.07448 1.19359 1.10044 0.917794 0.934934 0.979907 1.25044 1.19157 0.914577 1.1018 1.30725 1.28559
internal_weight=377000 303192 29816 23429 8004 4660 2079 273376 15425 7036 4818 2208 1314 8389 736 240628 6387 2581 2610 3344 852 32748 1472 736 2302 1729 29825 273 4085 2245
internal_count=377000 303192 29816 23429 8004 4660 2079 273376 15425 7036 4818 2208 1314 8389 736 240628 6387 2581 2610 3344 852 32748 1472 736 2302 1729 29825 273 4085 2245
is_linear=0
shrinkage=1


Tree=1
num_leaves=31
num_cat=0
split_feature=0 0 0 3 3 2 0 0 0 0 2 0 2 1 0 1 3 0 0 0 1 0 3 2 1 2 0 0 0 1
split_gain=68695 411695 94309.6 27025.3 6618.4 8806.15 9932.43 3552.58 2890.79 8543.16 3644.71 3622.28 2818.93 2508.05 2325.08 2142.6 1715.19 1711.2 1474.25 1440.65 1329.7 1248.84 1074.77 1777.71 956.203 943.17 928.22 1557.51 938.868 915.716
threshold=1.0000000180025095e-35 0.76000000000000012 0.49000000000000005 2012.5000000000002 2011.5000000000002 7.5000000000000009 0.57500000000000007 1.925 0.69000000000000006 0.63000000000000012 6.5000000000000009 0.57500000000000007 10.500000000000002 4.5000000000000009 0.71000000000000008 4.5000000000000009 2013.5000000000002 0.69000000000000006 0.52000000000000013 0.63000000000000012 3.5000000000000004 0.95000000000000007 2013.5000000000002 8.5000000000000018 3.5000000000000004 6.5000000000000009 5.9750000000000005 4.9250000000000007 2.8350000000000004 4.5000000000000009
decision_type=2 2 2 2 2 2 2 2 2 2 2 2 2 2 2 2 2 2 2 2 2 2 2 2 2 2 2 2 2 2
left_child=-1 2 16 4 19 17 -7 21 9 10 18 -12 14 -10 -8 26 24 25 -5 -4 -19 -3 23 -13 -2 -6 27 28 -9 -23
right_child=1 7 3 8 5 6 12 15 13 -11 11 22 -14 -15 -16 -17 -18 20 -20 -21 -22 29 -24 -25 -26 -27 -28 -29 -30 -31
leaf_value=-0.043258261680603032 0.29480870934018988 0.037928873067132281 0.29548054016533482 -0.043258261680603032 0.28281488087192014 -0.043258261680603032 0.33712896557281846 -0.024684660674257269 0.10435736735993156 -0.0029967648654880561 0.15887488974865691 -0.043258261680603032 0.10072097684898025 0.16485111145023257 0.15939119607817545 -0.0033710159190538528 0.37671847988116114 0.12630116431554017 0.16268816299426059 0.22846025401863201 0.25257278294353697 -0.0018713056641585961 -0.019701875250219651 0.12114235157391331 0.35991480736295706 0.18154027272875495 -0.010472873718417562 -0.032669304563599753 -0.010816213063418699 0.017502848745786656
leaf_weight=73808 1314 2923 2010 90 1456 765 368 16560 5989 2218 736 248 578 2400 368 68978 4085 488 2520 1334 364 21275 736 488 988 273 94255 14445 46390 8550
leaf_count=73808 1314 2923 2010 90 1456 765 368 16560 5989 2218 736 248 578 2400 368 68978 4085 488 2520 1334 364 21275 736 488 988 273 94255 14445 46390 8550
internal_value=-2.26913e-10 0.0105306 0.186953 0.140524 0.215072 0.176557 0.0999729 -0.00871106 0.101841 0.0782056 0.115588 0.0683065 0.183361 0.121664 0.24826 -0.0108138 0.357268 0.238245 0.155587 0.268745 0.180248 0.00673945 0.0230223 0.0657465 0.322752 0.266824 -0.0138047 -0.0178623 -0.0144645 0.00368273
internal_weight=377000 303192 29816 23429 8004 4660 2079 273376 15425 7036 4818 2208 1314 8389 736 240628 6387 2581 2610 3344 852 32748 1472 736 2302 1729 171650 77395 62950 29825
internal_count=377000 303192 29816 23429 8004 4660 2079 273376 15425 7036 4818 2208 1314 8389 736 240628 6387 2581 2610 3344 852 32748 1472 736 2302 1729 171650 77395 62950 29825
is_linear=0
shrinkage=0.05


Tree=2
num_leaves=31
num_cat=0
split_feature=0 0 0 3 3 2 0 0 0 0 2 0 2 1 0 1 3 0 0 0 1 0 3 2 0 2 0 2 0 2
split_gain=61997.2 371555 85114.4 24390.3 5973.11 7947.55 8964.01 3206.21 2608.94 7710.2 3289.35 3269.11 2544.09 2263.52 2098.38 1933.69 1547.96 1544.36 1330.51 1300.19 1200.05 1127.08 969.98 1604.38 904.904 876.776 977.524 851.211 861.406 843.955
threshold=1.0000000180025095e-35 0.76000000000000012 0.49000000000000005 2012.5000000000002 2011.5000000000002 7.5000000000000009 0.57500000000000007 1.925 0.69000000000000006 0.63000000000000012 6.5000000000000009 0.57500000000000007 10.500000000000002 4.5000000000000009 0.71000000000000008 4.5000000000000009 2013.5000000000002 0.69000000000000006 0.52000000000000013 0.63000000000000012 3.5000000000000004 0.95000000000000007 2013.5000000000002 8.5000000000000018 1.7250000000000003 3.5000000000000004 0.46500000000000002 6.5000000000000009 0.57500000000000007 6.5000000000000009
decision_type=2 2 2 2 2 2 2 2 2 2 2 2 2 2 2 2 2 2 2 2 2 2 2 2 2 2 2 2 2 2
left_child=-1 2 16 4 19 17 -7 21 9 10 18 -12 14 -10 -8 -9 25 27 -5 -4 -19 -3 23 -13 -23 26 -2 -6 -29 -18
right_child=1 7 3 8 5 6 12 15 13 -11 11 22 -14 -15 -16 -17 29 20 -20 -21 -22 24 -24 -25 -26 -27 -28 28 -30 -31
leaf_value=-0.041095349192619327 0.22669858856897651 0.036032430787455758 0.28070651450115652 -0.041095349192619327 0.26867414113175081 -0.041095349192619327 0.32027251742699225 -0.013114432333304747 0.09913949835855787 -0.0028469274616636491 0.15093114361490892 -0.041095349192619327 0.095684929455027865 0.15660855847845476 0.15142163413414814 -0.0032024651086146102 0.33730781822268313 0.11998610443847835 0.15455375824951464 0.21703723942500722 0.23994413994170807 -0.0029707459864690205 -0.018716783719339773 0.11508523479836885 0.015223308932606986 0.32900502702878387 0.34640619284323149 0.091439894381785569 0.2698219797784282 0.3829859731378763
leaf_weight=73808 546 2923 2010 90 1456 765 368 171650 5989 2218 736 248 578 2400 368 68978 2245 488 2520 1334 364 19220 736 488 10605 1508 248 149 124 1840
leaf_count=73808 546 2923 2010 90 1456 765 368 171650 5989 2218 736 248 578 2400 368 68978 2245 488 2520 1334 364 19220 736 488 10605 1508 248 149 124 1840
internal_value=-1.48022e-10 0.0100041 0.177606 0.133498 0.204318 0.167729 0.0949742 -0.0082755 0.0967487 0.0742954 0.109808 0.0648912 0.174193 0.115581 0.235847 -0.0102731 0.339404 0.226333 0.147807 0.255307 0.171236 0.00640247 0.0218712 0.0624592 0.00349859 0.306614 0.264088 0.253483 0.172463 0.357883
internal_weight=377000 303192 29816 23429 8004 4660 2079 273376 15425 7036 4818 2208 1314 8389 736 240628 6387 2581 2610 3344 852 32748 1472 736 29825 2302 794 1729 273 4085
internal_count=377000 303192 29816 23429 8004 4660 2079 273376 15425 7036 4818 2208 1314 8389 736 240628 6387 2581 2610 3344 852 32748 1472 736 29825 2302 794 1729 273 4085
is_linear=0
shrinkage=0.05


Tree=3
num_leaves=31
num_cat=0
split_feature=0 0 0 3 3 2 0 0 0 0 2 0 2 1 0 1 3 0 0 0 1 1 3 2 1 2 0 2 2 3
split_gain=55952.5 335328 76815.8 22012.3 5390.73 7172.67 8090.02 2893.6 2354.57 6958.45 2968.64 2950.37 2296.04 2042.82 1893.79 1793.6 1397.04 1393.78 1200.79 1190.38 1083.05 1036.66 875.406 1447.95 864.006 768.218 777.419 761.669 1071.15 756.896
threshold=1.0000000180025095e-35 0.76000000000000012 0.49000000000000005 2012.5000000000002 2011.5000000000002 7.5000000000000009 0.57500000000000007 1.925 0.69000000000000006 0.63000000000000012 6.5000000000000009 0.57500000000000007 10.500000000000002 4.5000000000000009 0.71000000000000008 3.5000000000000004 2013.5000000000002 0.69000000000000006 0.52000000000000013 0.69000000000000006 3.5000000000000004 4.5000000000000009 2013.5000000000002 8.5000000000000018 3.5000000000000004 6.5000000000000009 0.57500000000000007 6.5000000000000009 2.5000000000000004 2013.5000000000002
decision_type=2 2 2 2 2 2 2 2 2 2 2 2 2 2 2 2 2 2 2 2 2 2 2 2 2 2 2 2 2 2
left_child=-1 2 16 4 19 17 -7 21 9 10 18 -12 14 -10 -8 -9 24 25 -5 -4 -19 -3 23 -13 -2 -6 -27 28 -18 -20
right_child=1 7 3 8 5 6 12 15 13 -11 11 22 -14 -15 -16 -17 27 20 29 -21 -22 -23 -24 -25 -26 26 -28 -29 -30 -31
leaf_value=-0.039040583372116092 0.26472169792327799 0.00044279259111260202 0.26112713867287363 -0.039040583372116092 0.25524042966765365 -0.039040583372116092 0.3042588967667974 -0.013503641621479609 0.09418252406426933 -0.0027045817484758375 0.14338458827899203 -0.039040583372116092 0.090900682070160416 0.14877812958074113 0.14385055195054283 -0.004782515621997635 0.36305728111018459 0.11398680008581429 0.18998510780955219 0.19465786774528218 0.22794693534845836 0.020115168015208712 -0.017780943300939447 0.10933097229629268 0.3266094741198472 0.086867895342359613 0.25633088613469757 0.36383667970157191 0.29245185890994502 0.12942788386696699
leaf_weight=73808 1314 23360 2409 90 1456 765 368 137320 5989 2218 736 248 578 2400 368 103308 890 488 724 935 364 9388 736 488 988 149 124 1840 1355 1796
leaf_count=73808 1314 23360 2409 90 1456 765 368 137320 5989 2218 736 248 578 2400 368 103308 890 488 724 935 364 9388 736 488 988 149 124 1840 1355 1796
internal_value=1.62401e-12 0.0095039 0.168725 0.126823 0.194102 0.159342 0.0902255 -0.00786173 0.0919113 0.0705806 0.104318 0.0616466 0.165483 0.109802 0.224055 -0.00975943 0.322434 0.215016 0.140417 0.242542 0.162674 0.00608235 0.0207776 0.0593362 0.291283 0.240809 0.16384 0.339988 0.320442 0.146826
internal_weight=377000 303192 29816 23429 8004 4660 2079 273376 15425 7036 4818 2208 1314 8389 736 240628 6387 2581 2610 3344 852 32748 1472 736 2302 1729 273 4085 2245 2520
internal_count=377000 303192 29816 23429 8004 4660 2079 273376 15425 7036 4818 2208 1314 8389 736 240628 6387 2581 2610 3344 852 32748 1472 736 2302 1729 273 4085 2245 2520
is_linear=0
shrinkage=0.05


Tree=4
num_leaves=31
num_cat=0
split_feature=0 0 0 3 3 2 0 0 0 0 2 0 1 1 3 2 0 1 1 0 0 2 0 0 1 0 0 0 2 0
split_gain=50497.1 302634 69326.2 19866.1 4865.13 6508.11 4609.86 2611.47 2125 6280 2679.2 2662.71 1843.65 1618.73 1260.82 1207.86 1290.71 1118.21 1559.85 1083.71 1017.19 926.887 3217.3 1567.66 901.031 888.848 868.224 816.678 791.477 883.01
threshold=1.0000000180025095e-35 0.76000000000000012 0.49000000000000005 2012.5000000000002 2011.5000000000002 8.5000000000000018 0.57500000000000007 1.925 0.69000000000000006 0.63000000000000012 6.5000000000000009 0.57500000000000007 4.5000000000000009 3.5000000000000004 2013.5000000000002 10.500000000000002 0.71000000000000008 4.5000000000000009 5.5000000000000009 0.52000000000000013 0.95000000000000007 6.5000000000000009 0.57500000000000007 0.69000000000000006 3.5000000000000004 0.63000000000000012 0.63000000000000012 1.7250000000000003 3.5000000000000004 0.46500000000000002
decision_type=2 2 2 2 2 2 2 2 2 2 2 2 2 2 2 2 2 2 2 2 2 2 2 2 2 2 2 2 2 2
left_child=-1 2 14 4 17 21 -7 20 9 10 19 -12 -10 -9 28 16 -8 26 25 -5 -3 23 -23 -6 -25 -19 -4 -22 29 -2
right_child=1 7 3 8 5 6 15 13 12 -11 11 -13 -14 -15 -16 -17 -18 18 -20 -21 27 22 -24 24 -26 -27 -28 -29 -30 -31
leaf_value=-0.037088552117347719 0.2007787420319721 0.03392667323191597 0.23662809224760198 -0.037088552117347719 0.24247841142568288 -0.037088552117347719 0.27449899161326108 -0.012828459614378361 0.089473394498709224 -0.0025693513993828871 0.1362153573366611 0.019738750494814116 0.14133922118569414 -0.0045433903083979222 0.32298900698470079 0.086355645629773922 0.11186739605714063 0.393476243674451 0.21144635784244087 0.13948476588678738 -0.0031263328121895599 0.021537581958660956 0.22811499608290053 0.10444327524075142 0.21684720956911452 0.25559053683327032 0.17496227294285049 0.014158042088143953 0.29799311333570622 0.31455215561774469
leaf_weight=73808 546 2923 1430 90 1456 610 244 137320 5989 2218 736 1472 2400 103308 4085 578 244 294 476 2520 19220 304 496 416 312 194 950 10605 1508 248
leaf_count=73808 546 2923 1430 90 1456 610 244 137320 5989 2218 736 1472 2400 103308 4085 578 244 294 476 2520 19220 304 496 416 312 194 950 10605 1508 248
internal_value=1.70283e-10 0.00902871 0.160289 0.120482 0.184397 0.151375 0.0725316 -0.00746864 0.0873157 0.0670516 0.099102 0.0585643 0.104312 -0.00927146 0.306312 0.13526 0.193183 0.230415 0.275845 0.133396 0.00577823 0.195659 0.149616 0.212524 0.152616 0.338661 0.212014 0.00301954 0.276719 0.236315
internal_weight=377000 303192 29816 23429 8004 4660 1676 273376 15425 7036 4818 2208 8389 240628 6387 1066 488 3344 964 2610 32748 2984 800 2184 728 488 2380 29825 2302 794
internal_count=377000 303192 29816 23429 8004 4660 1676 273376 15425 7036 4818 2208 8389 240628 6387 1066 488 3344 964 2610 32748 2984 800 2184 728 488 2380 29825 2302 794
is_linear=0
shrinkage=0.05


Tree=5
num_leaves=31
num_cat=0
split_feature=0 0 0 3 3 2 0 0 0 0 2 0 1 1 3 2 0 1 1 0 1 0 0 0 2 0 0 1 0 0
split_gain=45573.7 273127 62566.9 17929.1 4390.78 5873.57 4160.4 2356.86 1917.81 5667.7 2417.97 2403.1 1663.89 1502.12 1137.89 1090.09 1164.87 1009.18 1407.77 978.047 935.583 837.719 1405.65 847.329 836.516 2903.61 1414.82 813.18 802.186 792.852
threshold=1.0000000180025095e-35 0.76000000000000012 0.49000000000000005 2012.5000000000002 2011.5000000000002 8.5000000000000018 0.57500000000000007 1.925 0.69000000000000006 0.63000000000000012 6.5000000000000009 0.57500000000000007 4.5000000000000009 4.5000000000000009 2013.5000000000002 10.500000000000002 0.71000000000000008 4.5000000000000009 5.5000000000000009 0.52000000000000013 4.5000000000000009 5.9750000000000005 4.9250000000000007 2.8350000000000004 6.5000000000000009 0.57500000000000007 0.69000000000000006 3.5000000000000004 0.63000000000000012 0.69000000000000006
decision_type=2 2 2 2 2 2 2 2 2 2 2 2 2 2 2 2 2 2 2 2 2 2 2 2 2 2 2 2 2 2
left_child=-1 2 14 4 17 24 -7 20 9 10 19 -12 -10 21 -2 16 -8 29 28 -5 -3 22 23 -9 26 -26 -6 -28 -19 -4
right_child=1 7 3 8 5 6 15 13 12 -11 11 -13 -14 -15 -16 -17 -18 18 -20 -21 -22 -23 -24 -25 25 -27 27 -29 -30 -31
leaf_value=-0.035234126448631289 0.26288330021705136 0.00013173865923843004 0.21938324199701623 -0.035234126448631289 0.23035448814363602 -0.035234126448631289 0.26077404537650406 -0.021648162546509132 0.08499972721952731 -0.0024408847540348258 0.12940458777644065 0.01875181352446342 0.13427226214483381 -0.0025760472893949079 0.3068395567750114 0.082037863996408389 0.10627402510555065 0.37380243307169603 0.20087403906993528 0.13251052864014157 0.018820504554534278 -0.0081469641910766801 -0.029233574324586311 -0.0084731372405991122 0.020460703047482591 0.21670924614243692 0.099221112983874413 0.20600484572231578 0.24281100986583024 0.15506834085050383
leaf_weight=73808 2302 23360 1715 90 1456 610 244 16560 5989 2218 736 1472 2400 68978 4085 578 244 294 476 2520 9388 94255 14445 46390 304 496 416 312 194 665
leaf_count=73808 2302 23360 1715 90 1456 610 244 16560 5989 2218 736 1472 2400 68978 4085 578 244 294 476 2520 9388 94255 14445 46390 304 496 416 312 194 665
internal_value=-3.93673e-10 0.00857727 0.152275 0.114457 0.175177 0.143806 0.068905 -0.00709521 0.0829499 0.063699 0.0941469 0.0556361 0.0990961 -0.00880789 0.290997 0.128497 0.183524 0.218894 0.262053 0.126726 0.00548932 -0.0113122 -0.0151669 -0.011939 0.185876 0.142135 0.201898 0.144986 0.321728 0.201413
internal_weight=377000 303192 29816 23429 8004 4660 1676 273376 15425 7036 4818 2208 8389 240628 6387 1066 488 3344 964 2610 32748 171650 77395 62950 2984 800 2184 728 488 2380
internal_count=377000 303192 29816 23429 8004 4660 1676 273376 15425 7036 4818 2208 8389 240628 6387 1066 488 3344 964 2610 32748 171650 77395 62950 2984 800 2184 728 488 2380
is_linear=0
shrinkage=0.05


Tree=6
num_leaves=31
num_cat=0
split_feature=0 0 0 3 3 2 0 0 0 0 2 0 1 1 3 2 0 0 1 1 0 3 2 1 0 2 0 0 0 1
split_gain=41130.2 246497 56466.6 16181 3962.68 5300.89 3754.76 2127.06 1730.82 5115.1 2182.22 2168.79 1501.66 1355.67 1026.95 983.81 1051.29 918.012 910.789 1270.51 882.688 790.054 1306.78 780.698 756.968 754.956 2620.51 1276.87 737.054 733.895
threshold=1.0000000180025095e-35 0.76000000000000012 0.49000000000000005 2012.5000000000002 2011.5000000000002 8.5000000000000018 0.57500000000000007 1.925 0.69000000000000006 0.63000000000000012 6.5000000000000009 0.57500000000000007 4.5000000000000009 4.5000000000000009 2013.5000000000002 10.500000000000002 0.71000000000000008 0.95000000000000007 4.5000000000000009 5.5000000000000009 0.52000000000000013 2013.5000000000002 8.5000000000000018 3.5000000000000004 2.4200000000000004 6.5000000000000009 0.57500000000000007 0.69000000000000006 1.7250000000000003 3.5000000000000004
decision_type=2 2 2 2 2 2 2 2 2 2 2 2 2 2 2 2 2 2 2 2 2 2 2 2 2 2 2 2 2 2
left_child=-1 2 14 4 18 25 -7 17 9 10 20 -12 -10 24 23 16 -8 -3 -4 -20 -5 22 -13 -2 -9 27 -27 -6 -19 -29
right_child=1 7 3 8 5 6 15 13 12 -11 11 21 -14 -15 -16 -17 -18 28 19 -21 -22 -23 -24 -25 -26 26 -28 29 -30 -31
leaf_value=-0.033472418785095215 0.22449040701286799 0.031955857801796272 0.19134225673973559 -0.033472418785095215 0.21883676337016811 -0.033472418785095215 0.24773534155893523 -0.025818558323769693 0.080749742061740709 -0.0023188393855277647 0.1229343630373478 -0.039013081789016725 0.12755864849624535 -0.0024472444152028581 0.29149758167656065 0.077935970216267664 0.10096032611537176 -0.0032444887554019101 0.30564157624774779 0.19083033487701617 0.12588500182513915 -0.018816424586364761 0.1019398952727435 0.2833189278969217 -0.010015077864753098 0.019437666649096894 0.20587378442493987 0.09426005758130207 0.013175690422244705 0.19570460567871731
leaf_weight=73808 1314 2923 2380 90 1456 610 244 7945 5989 2218 736 248 2400 68978 4085 578 244 19220 488 476 2520 736 488 988 163705 304 496 416 10605 312
leaf_count=73808 1314 2923 2380 90 1456 610 244 7945 5989 2218 736 248 2400 68978 4085 578 244 19220 488 476 2520 736 488 988 163705 304 496 416 10605 312
internal_value=2.05606e-10 0.00814841 0.144661 0.108735 0.166419 0.136616 0.0654598 -0.00674045 0.0788024 0.060514 0.0894396 0.0528543 0.0941413 -0.00836749 0.276447 0.122072 0.174348 0.00521486 0.207949 0.248951 0.12039 0.0178142 0.0544449 0.249739 -0.0107466 0.176582 0.135028 0.191803 0.0025941 0.137736
internal_weight=377000 303192 29816 23429 8004 4660 1676 273376 15425 7036 4818 2208 8389 240628 6387 1066 488 32748 3344 964 2610 1472 736 2302 171650 2984 800 2184 29825 728
internal_count=377000 303192 29816 23429 8004 4660 1676 273376 15425 7036 4818 2208 8389 240628 6387 1066 488 32748 3344 964 2610 1472 736 2302 171650 2984 800 2184 29825 728
is_linear=0
shrinkage=0.05


Tree=7
num_leaves=31
num_cat=0
split_feature=0 0 0 3 3 2 0 0 0 0 0 3 3 2 2 2 0 1 2 0 1 3 0 0 0 0 1 2 0 3
split_gain=37120 222463 50961.1 14603.4 3576.32 4796.54 5517.96 1923.73 1629.4 1672.46 2395.54 3784.37 1889.79 2092.34 1730.35 1555.05 1381.57 1281.76 1179.37 989.696 978.802 926.822 887.592 814.645 808.805 769.445 746.371 733.581 1140.96 784.559
threshold=1.0000000180025095e-35 0.76000000000000012 0.49000000000000005 2012.5000000000002 2011.5000000000002 7.5000000000000009 0.57500000000000007 1.7750000000000001 0.71000000000000008 0.57500000000000007 0.69000000000000006 2013.5000000000002 2013.5000000000002 10.500000000000002 6.5000000000000009 10.500000000000002 0.71000000000000008 3.5000000000000004 8.5000000000000018 0.69000000000000006 4.5000000000000009 2013.5000000000002 0.69000000000000006 0.95000000000000007 0.52000000000000013 1.7250000000000003 3.5000000000000004 7.5000000000000009 0.63000000000000012 2014.5000000000002
decision_type=2 2 2 2 2 2 2 2 2 2 2 2 2 2 2 2 2 2 2 2 2 2 2 2 2 2 2 2 2 2
left_child=-1 2 21 4 22 19 -7 23 9 24 11 14 13 -12 -11 16 -8 -9 -16 -6 -14 -2 -4 -3 -5 -25 -21 28 29 -13
right_child=1 7 3 8 5 6 15 17 -10 10 12 27 20 -15 18 -17 -18 -19 -20 26 -22 -23 -24 25 -26 -27 -28 -29 -30 -31
leaf_value=-0.031798797845840457 0.23725217905350282 0.03035806514873331 0.21360033343829474 -0.031798797845840457 0.19704738089705975 -0.03349296834344178 0.25212466909142678 -0.011074583374036384 0.12741989075285098 0.16059183525796261 -0.015866202648556892 0.085223300137363803 0.081587569056756376 0.11669785468672803 -0.037062427401542662 0.074039173518085158 0.11511626134262137 -0.0037209283384736693 0.096842899845271821 0.090788811081104356 0.12739361222363743 0.27692269885043913 0.15620380110600418 -0.0030822644993647331 0.12190943430028343 0.014390939896892302 0.18539217500896243 -0.014022557232506457 -0.0020919536249934612 -0.096325051784515392
leaf_weight=73808 2302 2923 2409 90 1729 765 368 138024 1346 724 887 848 4074 448 248 578 368 103836 488 488 1634 4085 935 19220 1744 9373 364 1658 1172 64
leaf_count=73808 2302 2923 2409 90 1729 765 368 138024 1346 724 887 848 4074 448 248 578 368 103836 488 488 1634 4085 935 19220 1744 9373 364 1658 1172 64
internal_value=2.43073e-10 0.00774099 0.137428 0.103298 0.158098 0.129785 0.0732646 -0.00640343 0.0748623 0.0698376 0.0631683 0.0374355 0.0821747 0.0286197 0.10571 0.135418 0.18362 -0.00791749 0.0517226 0.175313 0.0947002 0.262625 0.197552 0.00521582 0.114367 0.00264558 0.131206 0.0107973 0.0305436 0.0724831
internal_weight=377000 303192 29816 23429 8004 4660 2079 273376 15425 14079 12245 5202 7043 1335 1460 1314 736 241860 736 2581 5708 6387 3344 31516 1834 28593 852 3742 2084 912
internal_count=377000 303192 29816 23429 8004 4660 2079 273376 15425 14079 12245 5202 7043 1335 1460 1314 736 241860 736 2581 5708 6387 3344 31516 1834 28593 852 3742 2084 912
is_linear=0
shrinkage=0.05


Tree=8
num_leaves=31
num_cat=0
split_feature=0 0 0 3 3 2 0 0 0 0 0 3 3 2 2 1 2 1 1 3 1 1 2 0 0 2 0 2 0 2
split_gain=33500.8 200773 45992.4 13179.6 3227.63 4348.74 3036.68 1736.24 1470.54 1509.39 2161.98 3415.39 1705.54 1888.34 1561.64 1133.97 1064.38 883.368 843.297 836.457 822.045 1146.72 784.838 857.856 729.947 714.477 797.634 726.27 700.584 692.406
threshold=1.0000000180025095e-35 0.76000000000000012 0.49000000000000005 2012.5000000000002 2011.5000000000002 8.5000000000000018 0.57500000000000007 1.925 0.71000000000000008 0.57500000000000007 0.69000000000000006 2013.5000000000002 2013.5000000000002 10.500000000000002 6.5000000000000009 3.5000000000000004 8.5000000000000018 4.5000000000000009 4.5000000000000009 2013.5000000000002 4.5000000000000009 5.5000000000000009 10.500000000000002 0.71000000000000008 0.52000000000000013 3.5000000000000004 0.46500000000000002 2.5000000000000004 0.63000000000000012 7.5000000000000009
decision_type=2 2 2 2 2 2 2 2 2 2 2 2 2 2 2 2 2 2 2 2 2 2 2 2 2 2 2 2 2 2
left_child=-1 2 19 4 20 -6 -7 18 9 24 11 14 13 -12 -11 -9 -16 -14 -3 25 -4 28 23 -8 -5 26 27 -2 -22 -21
right_child=1 7 3 8 5 6 22 15 -10 10 12 -13 17 -15 16 -17 -18 -19 -20 29 21 -23 -24 -25 -26 -27 -28 -29 -30 -31
leaf_value=-0.030208858847618106 0.20583297818299107 -0.00036845056466879456 0.17189699235270506 -0.030208858847618106 0.15949507415726602 -0.03012414872646332 0.22274234373061386 -0.010530371662628633 0.12104889474986301 0.15256224381660233 -0.015072893902340227 0.010257406337291226 0.077508190175848493 0.11086296177319517 -0.035209307074546815 -0.0035959603312527115 0.092000756058536595 0.12102393071865949 0.017374654880117326 0.24714697299638139 0.32915021357487662 0.17141066623397738 0.07033721366349388 0.090156498475030808 0.11581396127606683 0.24560211148033961 0.26135975675236794 0.090013542807390615 0.20673499370435466 0.28967795116254708
leaf_weight=73808 298 23360 2380 90 2984 610 244 137320 1346 724 887 3742 4074 448 248 103308 488 1634 9388 2555 294 476 578 244 1744 1508 248 248 194 1530
leaf_count=73808 298 23360 2380 90 2984 610 244 137320 1346 724 887 3742 4074 448 248 103308 488 1634 9388 2555 294 476 578 244 1744 1508 248 248 194 1530
internal_value=-3.80579e-10 0.00735394 0.130556 0.0981329 0.150193 0.123296 0.0588464 -0.00608325 0.0711192 0.0663458 0.0600099 0.0355638 0.0780659 0.0271887 0.100424 -0.00755324 0.0491365 0.0899652 0.00471804 0.249493 0.187674 0.226627 0.109758 0.156449 0.108648 0.22539 0.187001 0.153226 0.280485 0.263077
internal_weight=377000 303192 29816 23429 8004 4660 1676 273376 15425 14079 12245 5202 7043 1335 1460 240628 736 5708 32748 6387 3344 964 1066 488 1834 2302 794 546 488 4085
internal_count=377000 303192 29816 23429 8004 4660 1676 273376 15425 14079 12245 5202 7043 1335 1460 240628 736 5708 32748 6387 3344 964 1066 488 1834 2302 794 546 488 4085
is_linear=0
shrinkage=0.05


Tree=9
num_leaves=31
num_cat=0
split_feature=0 0 0 3 3 2 0 1 0 0 0 3 3 2 2 2 0 0 2 0 0 1 0 3 1 1 1 1 1 2
split_gain=30234.5 181198 41508.2 11894.6 2912.94 3974.15 4641.88 1598.92 1327.16 1362.23 1951.19 3082.39 1539.25 1704.22 1409.38 1288.41 1164.07 1126.97 977.204 935.47 893.2 797.24 785.12 754.902 706.173 683.995 673.6 669.645 804.683 662.057
threshold=1.0000000180025095e-35 0.76000000000000012 0.49000000000000005 2012.5000000000002 2011.5000000000002 7.5000000000000009 0.57500000000000007 4.5000000000000009 0.71000000000000008 0.57500000000000007 0.69000000000000006 2013.5000000000002 2013.5000000000002 10.500000000000002 6.5000000000000009 10.500000000000002 0.71000000000000008 1.925 9.5000000000000018 0.9900000000000001 0.69000000000000006 4.5000000000000009 0.63000000000000012 2013.5000000000002 3.5000000000000004 5.5000000000000009 3.5000000000000004 5.5000000000000009 3.5000000000000004 7.5000000000000009
decision_type=2 2 2 2 2 2 2 2 2 2 2 2 2 2 2 2 2 2 2 2 2 2 2 2 2 2 2 2 2 2
left_child=-1 2 23 4 22 20 -7 19 9 -5 11 14 13 -12 -11 16 -8 -9 -16 -3 -6 -14 -4 24 -2 -18 -22 28 -25 -13
right_child=1 7 3 8 5 6 15 17 -10 10 12 29 21 -15 18 -17 25 -19 -20 -21 26 -23 -24 27 -26 -27 -28 -29 -30 -31
leaf_value=-0.02869841456413269 0.19010669529725779 0.013014695160311791 0.19802781181901102 0.10321576532541146 0.17922025682278594 -0.032233092091441935 0.22944689838863586 0.016505921612091721 0.1149964512329975 0.14493413231649452 -0.014319247887664073 0.028503514510077099 0.073632780848748566 0.10531981339112723 -0.010933748049580534 0.066820354692663703 0.076032159389645054 -0.0019590376196428325 0.10429309246980625 -0.0087683409311134237 0.078274614853616503 0.11497273798963577 0.14855173236929228 0.24121029032242403 0.24605693291827496 0.27172508258014344 0.16814780987819636 0.20040596265696053 0.29203155095346717 -0.013834299384397248
leaf_weight=73808 1314 5060 2010 1834 1729 765 368 9388 1346 724 887 2084 4074 448 368 578 316 68978 368 189950 488 1634 1334 2330 988 52 364 585 1170 1658
leaf_count=73808 1314 5060 2010 1834 1729 765 368 9388 1346 724 887 2084 4074 448 368 578 316 68978 368 189950 488 1634 1334 2330 988 52 364 585 1170 1658
internal_value=3.01412e-10 0.00698624 0.124029 0.0932263 0.142683 0.117131 0.0656836 -0.00577909 0.0675632 0.0630285 0.0570094 0.0337856 0.0741626 0.0258293 0.0954031 0.12269 0.166566 0.000253006 0.0466797 -0.00820313 0.158573 0.085467 0.178291 0.237019 0.21412 0.103684 0.116671 0.249923 0.258199 0.00974454
internal_weight=377000 303192 29816 23429 8004 4660 2079 273376 15425 14079 12245 5202 7043 1335 1460 1314 736 78366 736 195010 2581 5708 3344 6387 2302 368 852 4085 3500 3742
internal_count=377000 303192 29816 23429 8004 4660 2079 273376 15425 14079 12245 5202 7043 1335 1460 1314 736 78366 736 195010 2581 5708 3344 6387 2302 368 852 4085 3500 3742
is_linear=0
shrinkage=0.05


Tree=10
num_leaves=31
num_cat=0
split_feature=0 0 0 3 3 2 0 0 0 0 0 3 3 2 2 2 0 1 2 0 1 1 0 0 1 0 0 0 0 0
split_gain=27286.6 163531 37461.1 10734.8 2628.92 3586.67 4189.3 1456.56 1197.76 1229.41 1760.95 2781.86 1389.17 1538.06 1271.97 1162.79 1050.58 984.11 892.776 806.113 741.837 1034.83 731.21 1290.21 719.509 698.624 727.143 939.75 916.485 684.446
threshold=1.0000000180025095e-35 0.76000000000000012 0.49000000000000005 2012.5000000000002 2011.5000000000002 7.5000000000000009 0.57500000000000007 1.7750000000000001 0.71000000000000008 0.57500000000000007 0.69000000000000006 2013.5000000000002 2013.5000000000002 10.500000000000002 6.5000000000000009 10.500000000000002 0.71000000000000008 4.5000000000000009 8.5000000000000018 0.69000000000000006 4.5000000000000009 5.5000000000000009 5.9750000000000005 4.9250000000000007 4.5000000000000009 0.95000000000000007 0.97500000000000009 0.9900000000000001 1.7250000000000003 2.8350000000000004
decision_type=2 2 2 2 2 2 2 2 2 2 2 2 2 2 2 2 2 2 2 2 2 2 2 2 2 2 2 2 2 2
left_child=-1 2 -2 4 20 19 -7 25 9 -5 11 14 13 -12 -11 16 -8 22 -16 -6 -4 -22 23 29 -14 -3 -27 -28 -29 -9
right_child=1 7 3 8 5 6 15 17 -10 10 12 -13 24 -15 18 -17 -18 -19 -20 -21 21 -23 -24 -25 -26 26 27 28 -30 -31
leaf_value=-0.027263495326042178 0.22516782486643311 0.027903462970884991 0.15438819485622607 0.098054975561285757 0.17025924330935993 -0.030621436140895672 0.21797455431407561 -0.017791885420692863 0.10924662814142093 0.13768742501077072 -0.013603287637905715 0.0092573093100565915 0.069951139521777311 0.10005382329524895 -0.032902154326438907 0.063479336291860963 0.098500198320202209 -0.0017762830787585891 0.083602786548130345 0.11083758952032706 0.25754293135413137 0.15392618566534302 -0.0058630784791595114 -0.025895356715251602 0.10922410346230212 -0.029774856700138103 0.033429808488522637 -0.0064053687700521226 0.013511404733332628 -0.0061729411624723736
leaf_weight=73808 6387 2923 2380 1834 1729 765 368 17440 1346 724 887 3742 4074 448 248 578 368 69330 488 852 488 476 94255 14445 1634 1670 2499 15051 9373 46390
leaf_count=73808 6387 2923 2380 1834 1729 765 368 17440 1346 724 887 3742 4074 448 248 578 368 69330 488 852 488 476 94255 14445 1634 1670 2499 15051 9373 46390
internal_value=-1.65791e-10 0.00663693 0.117827 0.088565 0.135549 0.111275 0.0623994 -0.00549014 0.0641851 0.059877 0.0541589 0.0320963 0.0704545 0.0245378 0.090633 0.116555 0.158237 -0.0068076 0.0443457 0.150644 0.169376 0.206379 -0.0088294 -0.0124013 0.0811936 0.00462032 0.00224014 0.00422599 0.00123793 -0.00934754
internal_weight=377000 303192 29816 23429 8004 4660 2079 273376 15425 14079 12245 5202 7043 1335 1460 1314 736 241860 736 2581 3344 964 172530 78275 5708 31516 28593 26923 24424 63830
internal_count=377000 303192 29816 23429 8004 4660 2079 273376 15425 14079 12245 5202 7043 1335 1460 1314 736 241860 736 2581 3344 964 172530 78275 5708 31516 28593 26923 24424 63830
is_linear=0
shrinkage=0.05


Tree=11
num_leaves=31
num_cat=0
split_feature=0 0 0 3 3 2 0 1 0 0 0 0 3 3 2 2 2 1 0 3 0 1 1 2 2 1 2 2 2 0
split_gain=24626.2 147587 33808.7 9688.19 2372.6 3241.99 2189 1341.87 1146.29 1080.98 1109.54 1589.25 2510.63 1253.73 1388.1 1147.95 819.804 745.249 720.744 681.299 658.777 649.357 645.295 631.855 935.473 631.855 630.037 965.292 597.506 1029.72
threshold=1.0000000180025095e-35 0.76000000000000012 0.49000000000000005 2012.5000000000002 2011.5000000000002 8.5000000000000018 0.57500000000000007 3.5000000000000004 1.925 0.71000000000000008 0.57500000000000007 0.69000000000000006 2013.5000000000002 2013.5000000000002 10.500000000000002 6.5000000000000009 9.5000000000000018 3.5000000000000004 0.69000000000000006 2013.5000000000002 0.52000000000000013 4.5000000000000009 4.5000000000000009 5.5000000000000009 6.5000000000000009 2.5000000000000004 6.5000000000000009 2.5000000000000004 7.5000000000000009 0.63000000000000012
decision_type=2 2 2 2 2 2 2 2 2 2 2 2 2 2 2 2 2 2 2 2 2 2 2 2 2 2 2 2 2 2
left_child=-1 2 19 4 18 25 -7 -3 -9 10 20 12 15 14 -13 -12 -17 -8 -4 22 -5 -15 23 -2 -25 -6 27 -21 29 -14
right_child=1 7 3 9 5 6 17 8 -10 -11 11 13 28 21 -16 16 -18 -19 -20 26 -22 -23 -24 24 -26 -27 -28 -29 -30 -31
leaf_value=-0.025900319218635559 0.14649475782940333 -0.0082540430299093189 0.17536885671135102 -0.03876195251941681 0.11049196107423287 -0.025475215911865235 0.05658617838598367 0.012217286682535682 -0.0029998303723548971 0.10378429754616425 0.13080305310573367 -0.012923122314146166 0.066457999216110786 0.06645358435034196 0.095051133184980638 -0.010641491322008811 0.094898298169162287 0.14090838636801548 0.1236475481616861 0.24884565547945794 0.099959725667850691 0.10376289154572763 0.2338224371563182 0.35124412965029483 0.18713963021383143 0.15696178926176885 0.24785804078063889 0.18181970992321458 -0.013605450343372093 -0.0043882676044243799
leaf_weight=73808 880 156008 2409 90 1284 610 602 14060 103308 1346 724 887 912 4074 448 368 368 464 935 890 1744 1634 662 100 660 1700 1840 1355 1658 1172
leaf_count=73808 880 156008 2409 90 1284 610 602 14060 103308 1346 724 887 912 4074 448 368 368 464 935 890 1744 1634 662 100 660 1700 1840 1355 1658 1172
internal_value=-1.15047e-11 0.00630508 0.111936 0.0841367 0.128772 0.105711 0.0500635 -0.00521563 -0.00117691 0.0609758 0.0568832 0.051451 0.0304915 0.0669318 0.0233109 0.0861013 0.0421284 0.0932893 0.160907 0.213909 0.0931522 0.0771339 0.192156 0.175337 0.208732 0.136966 0.226168 0.208391 0.00879444 0.0266155
internal_weight=377000 303192 29816 23429 8004 4660 1676 273376 117368 15425 14079 12245 5202 7043 1335 1460 736 1066 3344 6387 1834 5708 2302 1640 760 2984 4085 2245 3742 2084
internal_count=377000 303192 29816 23429 8004 4660 1676 273376 117368 15425 14079 12245 5202 7043 1335 1460 736 1066 3344 6387 1834 5708 2302 1640 760 2984 4085 2245 3742 2084
is_linear=0
shrinkage=0.05


Tree=12
num_leaves=31
num_cat=0
split_feature=0 0 0 3 3 2 0 0 2 0 0 0 0 0 3 3 2 2 0 1 1 2 1 1 0 0 0 0 2 0
split_gain=22225.1 133197 30512.3 8743.59 2141.28 3006.29 3828.91 1237.96 1096.58 1025.51 996.416 975.585 1001.36 1434.3 2265.84 1131.49 1252.76 1036.02 888.908 814.737 770.831 748.833 669.555 934.001 639.317 649.326 857.373 768.807 632.643 783.261
threshold=1.0000000180025095e-35 0.76000000000000012 0.49000000000000005 2012.5000000000002 2011.5000000000002 6.5000000000000009 0.57500000000000007 1.925 10.500000000000002 0.71000000000000008 2.7250000000000005 0.71000000000000008 0.57500000000000007 0.69000000000000006 2013.5000000000002 2013.5000000000002 10.500000000000002 6.5000000000000009 0.69000000000000006 4.5000000000000009 5.5000000000000009 8.5000000000000018 4.5000000000000009 5.5000000000000009 0.95000000000000007 0.97500000000000009 0.9900000000000001 1.4750000000000003 9.5000000000000018 0.46500000000000002
decision_type=2 2 2 2 2 2 2 2 2 2 2 2 2 2 2 2 2 2 2 2 2 2 2 2 2 2 2 2 2 2
left_child=-1 2 28 4 22 18 -7 24 9 -8 -9 12 -5 14 17 16 -15 -14 -6 -12 -11 -19 -4 -24 -3 -26 -27 -28 29 -2
right_child=1 7 3 11 5 6 8 10 -10 20 19 -13 13 15 -16 -17 -18 21 -20 -21 -22 -23 23 -25 25 26 27 -29 -30 -31
leaf_value=-0.024605304002761841 0.1814812915435208 0.02648152064632725 0.13862292023673028 0.08849461991238361 0.16574152169216957 -0.018575125725642336 0.19342235924876713 -0.01701945965921443 0.055608717313803291 0.065422565717072709 -0.0071637935854910783 0.098595081798920486 0.12426290441283863 -0.012276965777863242 0.0083547221609196649 0.073277233830622457 0.090298574891806191 -0.030724969506263734 0.098074296657200702 -0.00045170866637133625 0.24249099451828646 0.075975351786044365 0.23662335544091759 0.13818400559492974 -0.028313483178537498 0.031732349899433861 -0.0087506083810118766 0.0086944291905137663 0.2331883263896368 0.22398340108974005
leaf_weight=73808 3420 2923 2380 1834 1456 914 492 19538 578 420 157710 1346 724 887 3742 5708 448 248 728 63380 72 488 488 476 1670 2499 11239 14417 1380 1587
leaf_count=73808 3420 2923 2380 1834 1456 914 492 19538 578 420 157710 1346 724 887 3742 5708 448 248 728 63380 72 488 488 476 1670 2499 11239 14417 1380 1587
internal_value=-1.54956e-10 0.00598983 0.106339 0.0799299 0.122333 0.100425 0.0627079 -0.00495485 0.11027 0.142379 -0.00619611 0.057927 0.054039 0.0488784 0.0289669 0.0635852 0.0221454 0.0817962 0.143186 -0.00523964 0.091335 0.040022 0.152862 0.188016 0.00416577 0.00197871 0.00377548 0.00105237 0.203214 0.194953
internal_weight=377000 303192 29816 23429 8004 4660 2476 273376 1562 984 240628 15425 14079 12245 5202 7043 1335 1460 2184 221090 492 736 3344 964 32748 29825 28155 25656 6387 5007
internal_count=377000 303192 29816 23429 8004 4660 2476 273376 1562 984 240628 15425 14079 12245 5202 7043 1335 1460 2184 221090 492 736 3344 964 32748 29825 28155 25656 6387 5007
is_linear=0
shrinkage=0.05


Tree=13
num_leaves=31
num_cat=0
split_feature=0 0 0 3 3 2 0 1 2 0 1 0 0 0 0 0 0 3 1 0 0 2 3 2 0 2 1 1 1 1
split_gain=20058.2 120210 27537.4 7891.09 1932.5 2713.17 3455.6 1148.57 989.665 925.521 920.483 864.913 840 814.378 1144.87 802.24 764.274 944.552 695.675 654.729 654.435 624.167 598.749 605.439 691.627 655.984 603.646 726.15 596.098 809.858
threshold=1.0000000180025095e-35 0.76000000000000012 0.49000000000000005 2012.5000000000002 2011.5000000000002 6.5000000000000009 0.57500000000000007 4.5000000000000009 10.500000000000002 0.71000000000000008 3.5000000000000004 1.925 0.57500000000000007 0.69000000000000006 0.63000000000000012 0.69000000000000006 0.69000000000000006 2013.5000000000002 5.5000000000000009 0.63000000000000012 0.9900000000000001 6.5000000000000009 2013.5000000000002 3.5000000000000004 0.46500000000000002 2.5000000000000004 5.5000000000000009 3.5000000000000004 5.5000000000000009 4.5000000000000009
decision_type=2 2 2 2 2 2 2 2 2 2 2 2 2 2 2 2 2 2 2 2 2 2 2 2 2 2 2 2 2 2
left_child=-1 2 22 4 19 15 -7 20 9 -8 12 -9 -5 14 -12 28 17 21 -11 -4 -3 -14 23 24 25 -2 27 -24 29 -6
right_child=1 7 3 10 5 6 8 11 -10 18 13 -13 16 -15 -16 -17 -18 -19 -20 -21 -22 -23 26 -25 -26 -27 -28 -29 -30 -31
leaf_value=-0.023375038802623749 0.15586786756054469 0.010985171002715002 0.16324269842597383 0.086485191991814231 0.15250248529303534 -0.017646369146472517 0.18375124350924621 0.014643796099551538 0.052828282734482292 0.062151438600960229 0.070910125441751723 -0.0015324652440600343 0.1077409270463638 0.085185924104396002 0.0046713164810333364 0.093170580871730718 0.051133276745618662 0.0012221646646895772 0.23036644279749857 0.1180614629171152 -0.0072343475548430364 0.021325331504614849 0.19626480693085513 0.19126636028704813 0.20656332065381353 0.045795356091712758 0.1575320534178844 0.24454247672588397 0.079089160951284265 0.26057954304493391
leaf_weight=73808 298 5060 2010 1047 1040 914 492 9388 578 420 2063 68978 412 3599 954 728 4790 2136 72 1334 189950 424 2330 1508 248 248 585 1170 208 208
leaf_count=73808 298 5060 2010 1047 1040 914 492 9388 578 420 2063 68978 412 3599 954 728 4790 2136 72 1334 189950 424 2330 1508 248 248 585 1170 208 208
internal_value=2.46747e-10 0.00569034 0.101022 0.0759334 0.116216 0.0954042 0.0595725 -0.00470711 0.104757 0.13526 0.0550307 0.0004054 0.0444455 0.0691246 0.0499649 0.136026 0.0387748 0.0188566 0.0867683 0.145219 -0.0067616 0.0639129 0.193053 0.17266 0.137322 0.105872 0.204545 0.212403 0.157454 0.170515
internal_weight=377000 303192 29816 23429 8004 4660 2476 273376 1562 984 15425 78366 8809 6616 3017 2184 7762 2972 492 3344 195010 836 6387 2302 794 546 4085 3500 1456 1248
internal_count=377000 303192 29816 23429 8004 4660 2476 273376 1562 984 15425 78366 8809 6616 3017 2184 7762 2972 492 3344 195010 836 6387 2302 794 546 4085 3500 1456 1248
is_linear=0
shrinkage=0.05


Tree=14
num_leaves=31
num_cat=0
split_feature=0 0 0 3 3 2 0 1 0 0 2 0 0 3 3 2 2 0 2 1 1 0 0 1 1 3 1 0 1 2
split_gain=18102.5 108490 24852.5 7121.71 1744.08 2456.06 2933.91 1064.31 895.576 856.419 847.901 833.937 1153.9 1893.49 1021.14 1130.12 878.045 787.815 687.762 604.226 842.87 597.315 594.843 570.884 1218.83 663.35 569.867 562.966 541.909 536.73
threshold=1.0000000180025095e-35 0.76000000000000012 0.49000000000000005 2012.5000000000002 2011.5000000000002 7.5000000000000009 0.57500000000000007 3.5000000000000004 1.925 0.71000000000000008 10.500000000000002 0.57500000000000007 0.69000000000000006 2013.5000000000002 2013.5000000000002 10.500000000000002 6.5000000000000009 0.71000000000000008 9.5000000000000018 4.5000000000000009 5.5000000000000009 0.69000000000000006 0.52000000000000013 3.5000000000000004 5.5000000000000009 2013.5000000000002 3.5000000000000004 0.63000000000000012 4.5000000000000009 7.5000000000000009
decision_type=2 2 2 2 2 2 2 2 2 2 2 2 2 2 2 2 2 2 2 2 2 2 2 2 2 2 2 2 2 2
left_child=-1 2 23 4 19 21 -7 -3 -9 11 17 22 13 16 15 -14 -13 -8 -18 -4 27 -6 -5 25 -25 -2 -23 -21 -16 -15
right_child=1 7 3 9 5 6 10 8 -10 -11 -12 12 14 29 28 -17 18 -19 -20 20 -22 26 -24 24 -26 -27 -28 -29 -30 -31
leaf_value=-0.022206287086009982 0.14202375147644788 -0.0071777376775207834 0.12443136164120266 -0.045269995927810669 0.14009735654549918 -0.027656327509412576 0.18283353251324075 0.010964257944617712 -0.0024861804824148656 0.090382578764193838 0.050186866401391798 0.11345630520285824 -0.014943447411732314 0.024115172133650525 0.056568516466709906 0.082482079250205842 -0.012430095879118079 0.079373374634989266 0.084237366798333824 0.26115241731916156 0.12401440185612114 0.053630515471955791 0.086548543858999794 0.22422984005005542 0.15355934544741462 0.1864515652133216 0.13629442019858859 0.15141706791965617 0.090651591983025345 -0.014005330624452042
leaf_weight=73808 1314 156008 2380 90 1729 765 368 14060 103308 1346 578 724 887 2084 4074 448 368 368 368 294 476 488 1744 1827 916 2330 364 194 1634 1658
leaf_count=73808 1314 156008 2380 90 1729 765 368 14060 103308 1346 578 724 887 2084 4074 448 368 368 368 294 476 488 1744 1827 916 2330 364 194 1634 1658
internal_value=8.46682e-12 0.00540582 0.095971 0.0721367 0.110405 0.090634 0.0501891 -0.00447175 -0.000874897 0.0522792 0.09551 0.0486363 0.0439269 0.0260674 0.057118 0.0177507 0.0743613 0.131103 0.0359036 0.137958 0.171353 0.123212 0.0800798 0.183401 0.20063 0.170431 0.088947 0.217528 0.0663253 0.00722479
internal_weight=377000 303192 29816 23429 8004 4660 2079 273376 117368 15425 1314 14079 12245 5202 7043 1335 1460 736 736 3344 964 2581 1834 6387 2743 3644 852 488 5708 3742
internal_count=377000 303192 29816 23429 8004 4660 2079 273376 117368 15425 1314 14079 12245 5202 7043 1335 1460 736 736 3344 964 2581 1834 6387 2743 3644 852 488 5708 3742
is_linear=0
shrinkage=0.05


Tree=15
num_leaves=31
num_cat=0
split_feature=0 0 0 3 3 2 0 0 1 2 1 0 1 0 0 0 0 0 3 0 1 2 0 2 1 1 1 1 1 2
split_gain=16337.5 97912.1 22429.4 6427.34 1574.03 2247.07 2859.36 978.447 885.241 839.678 800.392 729.472 761.036 700.303 668.44 953.003 664.775 624.496 759.378 584.723 557.588 555.94 663.381 599.369 670.849 626.913 537.978 730.897 513.16 485.4
threshold=1.0000000180025095e-35 0.76000000000000012 0.49000000000000005 2012.5000000000002 2011.5000000000002 6.5000000000000009 0.57500000000000007 0.95000000000000007 4.5000000000000009 11.500000000000002 3.5000000000000004 0.69000000000000006 5.5000000000000009 0.57500000000000007 0.69000000000000006 0.63000000000000012 0.69000000000000006 0.69000000000000006 2013.5000000000002 0.69000000000000006 1.0000000180025095e-35 9.5000000000000018 0.46500000000000002 1.5000000000000002 2.5000000000000004 5.5000000000000009 5.5000000000000009 4.5000000000000009 2.5000000000000004 5.5000000000000009
decision_type=2 2 2 2 2 2 2 2 2 2 2 2 2 2 2 2 2 2 2 2 2 2 2 2 2 2 2 2 2 2
left_child=-1 2 21 4 19 16 -7 -3 -9 11 13 -8 -13 -5 15 -12 26 18 20 -4 -15 22 -2 24 -24 -26 27 29 -18 -6
right_child=1 7 3 10 5 6 9 8 -10 -11 14 12 -14 17 -16 -17 28 -19 -20 -21 -22 -23 23 -25 25 -27 -28 -29 -30 -31
leaf_value=-0.021095971763134005 0.15408857625811118 0.024525162082877913 0.14408566068082307 0.078179733233158091 0.12287910507368181 -0.016748591258111095 0.15186582584926264 -0.0063725246135041651 -4.6612132020074018e-05 0.020922431368981642 0.064559004786259575 0.053175382593852287 0.20858513989850233 0.12796424348444607 0.07735883001218441 0.0041250670487861648 0.035586125718859524 0.045788232587153456 0.00080033816163487437 0.097499796074546161 0.03351070540808853 0.20232918377088357 0.1556731992168352 0.18266555079901725 0.43902026670607364 0.16475081251099194 0.068129832840238061 0.24054569521775615 0.12041393285975432 0.2156952992192514
leaf_weight=73808 3420 2923 2409 1047 872 914 612 192925 77528 310 2063 548 92 208 3599 954 312 4790 2136 935 628 1380 64 1420 74 29 208 208 416 168
leaf_count=73808 3420 2923 2409 1047 872 914 612 192925 77528 310 2063 548 92 208 3599 954 312 4790 2136 935 628 1380 64 1420 74 29 208 208 416 168
internal_value=-1.3786e-10 0.00513553 0.0911724 0.0685299 0.104885 0.0861023 0.0534934 -0.00424816 -0.00455914 0.0945953 0.0496652 0.112837 0.0755155 0.0397946 0.0628076 0.0454493 0.123071 0.0346169 0.016612 0.13106 0.0570111 0.174231 0.166486 0.193203 0.282805 0.361799 0.142577 0.154985 0.0840592 0.137872
internal_weight=377000 303192 29816 23429 8004 4660 2476 273376 270453 1562 15425 1252 640 8809 6616 3017 2184 7762 2972 3344 836 6387 5007 1587 167 103 1456 1248 728 1040
internal_count=377000 303192 29816 23429 8004 4660 2476 273376 270453 1562 15425 1252 640 8809 6616 3017 2184 7762 2972 3344 836 6387 5007 1587 167 103 1456 1248 728 1040
is_linear=0
shrinkage=0.05


Tree=16
num_leaves=31
num_cat=0
split_feature=0 0 0 3 3 2 0 0 0 0 0 0 0 0 0 3 3 2 2 0 0 3 3 1 2 3 2 1 1 0
split_gain=14744.6 88365.7 20242.5 5800.68 1420.57 2043.73 1280.95 949.514 850.49 2228.25 1041.7 1343.78 752.585 694.374 927.268 1584.03 921.559 1019.5 793.077 676.599 13105.2 1224.28 833.652 639.244 627.594 560.483 552.955 545.352 760.743 537.093
threshold=1.0000000180025095e-35 0.76000000000000012 0.49000000000000005 2012.5000000000002 2011.5000000000002 8.5000000000000018 0.57500000000000007 1.7750000000000001 5.9750000000000005 4.9250000000000007 2.8350000000000004 2.9000000000000004 0.71000000000000008 0.57500000000000007 0.69000000000000006 2013.5000000000002 2013.5000000000002 10.500000000000002 6.5000000000000009 9.9750000000000032 9.9450000000000021 2013.5000000000002 2011.5000000000002 3.5000000000000004 8.5000000000000018 2014.5000000000002 5.5000000000000009 4.5000000000000009 5.5000000000000009 0.52000000000000013
decision_type=2 2 2 2 2 2 2 2 2 2 2 2 2 2 2 2 2 2 2 2 2 2 2 2 2 2 2 2 2 2
left_child=-1 2 -2 4 27 -6 -7 -3 9 10 -9 -12 13 29 15 18 17 -16 -15 20 -10 22 -22 -8 -20 -23 -24 -4 -29 -5
right_child=1 7 3 12 5 6 23 8 19 -11 11 -13 -14 14 16 -17 -18 -19 24 -21 21 25 26 -25 -26 -27 -28 28 -30 -31
leaf_value=-0.020041173696517946 0.1655190417925623 0.004127380215620105 0.11165634569250237 -0.046650635864999561 0.1066128239126039 -0.02017013430595398 0.036688205531714764 -0.013763354893931072 -0.0032363552012158086 -0.023332008436537852 0.027357825101650458 -0.0034366174707876566 0.082900875332982557 0.10478665383933988 -0.017156607707229515 0.0062256968933103373 0.060041532007756776 0.075377956819387956 -0.03368526307805892 -0.0058681365669295445 0.042183411520297136 0.055601991174155721 0.1278455674254855 0.11478346343762402 0.063996252107632462 0.11548172408597507 0.21457779959195178 0.20010135131124712 0.11126022917539383 0.078605788338228788
leaf_weight=73808 6387 31516 2380 90 2984 610 602 24444 61589 20247 3760 61270 1346 724 887 3742 5708 448 248 68082 127 730 303 464 488 841 467 488 476 1744
leaf_count=73808 6387 31516 2380 90 2984 610 602 24444 61589 20247 3760 61270 1346 724 887 3742 5708 448 248 68082 127 730 303 464 488 841 467 488 476 1744
internal_value=-1.21072e-10 0.00487875 0.0866138 0.0651034 0.0996409 0.0817971 0.0376146 -0.00403576 -0.00509947 -0.00835328 -0.00496376 -0.0016561 0.0471819 0.0437671 0.0394697 0.0234599 0.0512947 0.0138962 0.0676313 -0.00239768 0.00129085 0.114267 0.160872 0.0706809 0.0310818 0.0876573 0.180448 0.124507 0.156234 0.0724591
internal_weight=377000 303192 29816 23429 8004 4660 1676 273376 241860 109721 89474 65030 15425 14079 12245 5202 7043 1335 1460 132139 64057 2468 897 1066 736 1571 770 3344 964 1834
internal_count=377000 303192 29816 23429 8004 4660 1676 273376 241860 109721 89474 65030 15425 14079 12245 5202 7043 1335 1460 132139 64057 2468 897 1066 736 1571 770 3344 964 1834
is_linear=0
shrinkage=0.05


Tree=17
num_leaves=31
num_cat=0
split_feature=0 0 0 3 1 0 1 0 2 0 0 2 3 1 0 0 3 2 1 0 0 1 1 3 1 3 2 2 2 3
split_gain=13307 79796.6 18470.5 5017.5 1386.51 1014.74 876.77 867.576 1676.31 981.293 654.125 633.789 1526.57 980.359 619.052 576.095 1015.68 797.018 723.059 541.448 527.799 508.411 1086.74 587.943 482.763 474.172 471.023 597.257 564.003 459.694
threshold=1.0000000180025095e-35 0.89000000000000001 0.49000000000000005 2011.5000000000002 3.5000000000000004 0.71000000000000008 3.5000000000000004 0.63000000000000012 6.5000000000000009 0.69000000000000006 1.925 6.5000000000000009 2012.5000000000002 5.5000000000000009 0.55500000000000005 0.55500000000000005 2012.5000000000002 8.5000000000000018 2.5000000000000004 0.57500000000000007 0.69000000000000006 3.5000000000000004 5.5000000000000009 2013.5000000000002 1.0000000180025095e-35 2014.5000000000002 9.5000000000000018 2.5000000000000004 11.500000000000002 2012.5000000000002
decision_type=2 2 2 2 2 2 2 2 2 2 2 2 2 2 2 2 2 2 2 2 2 2 2 2 2 2 2 2 2 2
left_child=-1 2 21 20 7 11 -3 8 -5 -9 -8 12 13 -6 -13 -10 17 18 -17 -18 -4 23 26 24 -2 -14 27 -23 -28 -16
right_child=1 6 3 4 5 -7 10 9 15 -11 -12 14 25 -15 29 16 19 -19 -20 -21 -22 22 -24 -25 -26 -27 28 -29 -30 -31
leaf_value=-0.019039115309715273 0.17048759089158202 -0.0063569960448068771 0.13065703967798789 0.087827411952144899 0.18964859980858115 0.10678457493837337 0.009555464906544105 -0.0098567466904362078 -0.019006410149603567 0.038685706754273116 -0.0020018290224808541 -0.014365875429021192 0.079837541936731274 0.057231347330269355 0.10569287332591047 0.13921034287799289 0.064996861424824262 0.058788533700441105 0.39795715957880023 -0.0042039433476638117 0.086396841888121745 0.23603498418851909 0.12905554688377022 0.16008620953227318 0.10067338204638519 0.041313737133342743 0.28460468999213645 0.16312963956263646 0.15432691304634016 0.045425645758468261
leaf_weight=73808 331 155780 2409 2315 418 1369 13889 1264 521 5904 103308 393 1559 210 356 108 424 276 36 848 935 383 916 2330 983 1638 270 1054 120 2845
leaf_count=73808 331 155780 2409 2315 418 1369 13889 1264 521 5904 103308 393 1559 210 356 108 424 276 36 848 935 383 916 2330 983 1638 270 1054 120 2845
internal_value=-3.04926e-10 0.00463482 0.0817349 0.0614953 0.0522249 0.067232 -0.00389916 0.0409491 0.0580827 0.0301258 -0.000632176 0.0599336 0.0740994 0.145369 0.0448572 0.0269671 0.0411232 0.10854 0.203897 0.018863 0.118282 0.157243 0.173503 0.145004 0.11826 0.0600997 0.195787 0.182561 0.244519 0.0521283
internal_weight=377000 303192 30215 23828 20484 8788 272977 11696 4528 7168 117197 7419 3825 628 3594 2213 1692 420 144 1272 3344 6387 2743 3644 1314 3197 1827 1437 390 3201
internal_count=377000 303192 30215 23828 20484 8788 272977 11696 4528 7168 117197 7419 3825 628 3594 2213 1692 420 144 1272 3344 6387 2743 3644 1314 3197 1827 1437 390 3201
is_linear=0
shrinkage=0.05


Tree=18
num_leaves=31
num_cat=0
split_feature=0 0 0 3 3 2 0 1 0 0 2 1 0 1 0 0 0 0 1 1 0 2 0 2 1 1 2 2 0 0
split_gain=12009.6 72016.4 16669.7 4528.3 1275.45 1912.06 1987.87 791.285 746.017 904.487 716.077 703.284 590.348 590.179 573.668 780.978 552.806 523.867 492.215 686.618 477.291 475.402 589.21 526.955 596.069 558.344 462.021 702.963 525.175 499.613
threshold=1.0000000180025095e-35 0.89000000000000001 0.49000000000000005 2011.5000000000002 2012.5000000000002 6.5000000000000009 0.57500000000000007 3.5000000000000004 0.69000000000000006 0.71000000000000008 10.500000000000002 3.5000000000000004 1.925 4.5000000000000009 0.69000000000000006 0.63000000000000012 0.69000000000000006 0.57500000000000007 4.5000000000000009 5.5000000000000009 0.63000000000000012 9.5000000000000018 0.46500000000000002 1.5000000000000002 2.5000000000000004 3.5000000000000004 5.5000000000000009 4.5000000000000009 0.52000000000000013 0.57500000000000007
decision_type=2 2 2 2 2 2 2 2 2 2 2 2 2 2 2 2 2 2 2 2 2 2 2 2 2 2 2 2 2 2
left_child=-1 2 21 18 5 16 -7 -3 10 -10 -8 17 -9 -11 15 -13 26 -6 -4 20 -20 22 -2 24 -24 -26 27 28 -5 -29
right_child=1 7 3 4 11 6 8 12 9 13 -12 14 -14 -15 -16 -17 -18 -19 19 -21 -22 -23 23 -25 25 -27 -28 29 -30 -31
leaf_value=-0.018087159097194671 0.13053544587875057 -0.0060391456567780253 0.10015901579576381 0.16804786719812836 0.066740360317009903 -0.016160527305347391 0.14789068410191988 0.0090776916600454546 -0.10443910549084345 0.035997972069017128 0.043126839093986104 0.056035235773734086 -0.0019017375197674857 0.12532988764918768 0.068114267783813534 0.0013269417142140168 0.071127435300949518 0.029101005920802316 0.22435259279750644 0.099782707713575669 0.12331171882214005 0.17536465892163311 0.13157677113777028 0.15751802034000539 0.56302626349031926 0.26872951998768085 0.18788881863777837 -0.0340978822761005 0.09439084238318865 0.10783760174508057
leaf_weight=73808 3420 155780 2380 484 1047 914 492 13889 90 640 244 2063 103308 260 3699 954 728 7897 294 476 194 1380 64 1420 20 83 240 124 484 124
leaf_count=73808 3420 155780 2380 484 1047 914 492 13889 90 640 244 2063 103308 260 3699 954 728 7897 294 476 194 1380 64 1420 20 83 240 124 484 124
internal_value=6.08397e-11 0.00440307 0.0776482 0.0584205 0.0496137 0.0720932 0.0434619 -0.0037042 0.0750348 0.0466919 0.113159 0.042689 -0.000600567 0.061805 0.0549168 0.038736 0.106702 0.0335071 0.112368 0.142509 0.184185 0.149381 0.142219 0.167399 0.251413 0.325875 0.12449 0.111977 0.131219 0.0368699
internal_weight=377000 303192 30215 23828 20484 4824 2640 272977 1726 990 736 15660 117197 900 6716 3017 2184 8944 3344 964 488 6387 5007 1587 167 103 1456 1216 968 248
internal_count=377000 303192 30215 23828 20484 4824 2640 272977 1726 990 736 15660 117197 900 6716 3017 2184 8944 3344 964 488 6387 5007 1587 167 103 1456 1216 968 248
is_linear=0
shrinkage=0.05


Tree=19
num_leaves=31
num_cat=0
split_feature=0 0 0 3 3 2 0 0 1 2 0 0 1 0 0 3 3 2 2 2 0 0 0 1 1 3 1 1 2 0
split_gain=10838.6 65007.5 14868.1 4318.24 1022.57 1565.25 1993.45 795.638 700.504 676.53 630.459 554.447 619.097 538.326 758.223 1344.77 836.564 928.619 648.183 577.679 498.907 493.819 467.811 456.325 981.193 519.262 448.908 603.159 447.254 749.939
threshold=1.0000000180025095e-35 0.76000000000000012 0.49000000000000005 2012.5000000000002 2011.5000000000002 6.5000000000000009 0.57500000000000007 0.9900000000000001 4.5000000000000009 11.500000000000002 0.71000000000000008 0.69000000000000006 5.5000000000000009 0.57500000000000007 0.69000000000000006 2013.5000000000002 2013.5000000000002 10.500000000000002 6.5000000000000009 9.5000000000000018 0.69000000000000006 0.52000000000000013 0.63000000000000012 3.5000000000000004 5.5000000000000009 2013.5000000000002 5.5000000000000009 4.5000000000000009 7.5000000000000009 0.63000000000000012
decision_type=2 2 2 2 2 2 2 2 2 2 2 2 2 2 2 2 2 2 2 2 2 2 2 2 2 2 2 2 2 2
left_child=-1 2 23 4 22 20 -7 -3 -9 11 13 -8 -13 21 15 18 17 -16 -15 -20 26 -5 -4 25 -25 -2 27 -6 29 -17
right_child=1 7 3 10 5 6 9 8 -10 -11 -12 12 -14 14 16 28 -18 -19 19 -21 -22 -23 -24 24 -26 -27 -28 -29 -30 -31
leaf_value=-0.017182801663875581 0.10518298505520507 0.013065452817948279 0.1219845351688008 -0.051682978537347581 0.11405458913686184 -0.015352500401257947 0.12801566225038294 -0.0055290514190401083 0.00014207320314835862 0.011486326879070651 0.073082605316504332 0.04130266045125025 0.18147271455306074 0.09329270360096055 -0.021094944737977617 0.052544282552818844 0.052507332526604215 0.067218871208024208 -0.017636926609860815 0.070957053153087271 0.06757106430032854 0.068421472492440891 0.083793395237698368 0.1784904221562158 0.11508255682918184 0.14449062695191142 0.050260011063745391 0.20732524087652565 -0.016255702353357836 -0.0079160596435347667
leaf_weight=73808 1314 7092 2010 90 1040 914 612 189950 76334 310 1346 548 92 724 887 912 5708 448 368 368 728 1744 1334 1827 916 2330 208 208 1658 1172
leaf_count=73808 1314 7092 2010 90 1040 914 612 189950 76334 310 1346 548 92 724 887 912 5708 448 368 368 728 1744 1334 1827 916 2330 208 208 1658 1172
internal_value=-1.6538e-10 0.00418292 0.0742878 0.0558528 0.0856521 0.0705128 0.0432971 -0.00346314 -0.00390334 0.0776157 0.04039 0.0939896 0.0614521 0.0372645 0.0334807 0.0190036 0.0441736 0.00854145 0.0597026 0.0266601 0.101367 0.0625276 0.106749 0.141912 0.157316 0.130317 0.118265 0.1296 0.00312421 0.0185426
internal_weight=377000 303192 29816 23429 8004 4660 2476 273376 266284 1562 15425 1252 640 14079 12245 5202 7043 1335 1460 736 2184 1834 3344 6387 2743 3644 1456 1248 3742 2084
internal_count=377000 303192 29816 23429 8004 4660 2476 273376 266284 1562 15425 1252 640 14079 12245 5202 7043 1335 1460 736 2184 1834 3344 6387 2743 3644 1456 1248 3742 2084
is_linear=0
shrinkage=0.05


Tree=20
num_leaves=31
num_cat=0
split_feature=0 0 0 3 1 0 2 0 1 0 0 2 3 1 3 0 1 1 2 0 1 2 0 2 0 2 1 1 3 1
split_gain=9781.88 58683.2 13571.5 3685.57 1146.6 837.227 696.732 1252.71 663.994 534.123 517.256 486.187 1132.16 807.588 454.529 453.379 444.189 619.625 440.727 601.278 545.474 452.349 432.901 428.21 523.646 473.201 534.46 518.981 423.473 417.258
threshold=1.0000000180025095e-35 0.89000000000000001 0.49000000000000005 2011.5000000000002 3.5000000000000004 0.71000000000000008 8.5000000000000018 0.63000000000000012 3.5000000000000004 0.69000000000000006 1.925 6.5000000000000009 2012.5000000000002 5.5000000000000009 2012.5000000000002 0.55500000000000005 4.5000000000000009 5.5000000000000009 1.5000000000000002 0.57500000000000007 1.0000000180025095e-35 6.5000000000000009 2.4200000000000004 9.5000000000000018 0.46500000000000002 1.5000000000000002 2.5000000000000004 5.5000000000000009 2013.5000000000002 3.5000000000000004
decision_type=2 2 2 2 2 2 2 2 2 2 2 2 2 2 2 2 2 2 2 2 2 2 2 2 2 2 2 2 2 2
left_child=-1 2 23 16 6 11 7 14 -3 -9 -10 12 13 -6 18 -13 -4 -18 20 21 -5 -20 -12 24 29 26 -26 -28 -24 -2
right_child=1 8 3 4 5 -7 -8 9 10 -11 22 15 -14 -15 -16 -17 17 -19 19 -21 -22 -23 28 -25 25 -27 27 -29 -30 -31
leaf_value=-0.016323661804199221 0.1018412342984707 -0.0054835344761435941 0.089814058018832646 0.017787608429789544 0.16578736603104077 0.094371345245066449 0.01710197707322212 -0.011687402586380449 0.0085577628545962514 0.034304810000309542 -0.016412699898431003 -0.01207193042182437 0.052166016369068771 0.045603269012201401 0.053100800274724295 0.04483309275825921 0.16963536750036676 0.089456563735402297 0.077854694368747576 0.13255462429823947 0.23505346151785209 -0.01617617333646525 0.0024857943313177778 0.15947664545815221 0.11789624327793718 0.14239342954203252 0.37213936260825881 0.12259394135968438 -0.004083307548865261 0.13711967701941324
leaf_weight=73808 1950 155780 2380 40 418 1369 3844 748 13889 4045 4781 393 3197 210 1907 3201 488 476 468 364 104 176 46147 1380 64 1420 74 29 52380 1470
leaf_count=73808 1950 155780 2380 40 418 1369 3844 748 13889 4045 4781 393 3197 210 1907 3201 488 476 468 364 104 176 46147 1380 64 1420 74 29 52380 1470
internal_value=-8.526e-11 0.00397378 0.0700918 0.0527427 0.0447975 0.0584446 0.0345434 0.043082 -0.00334463 0.0271272 -0.000501566 0.0518152 0.0642224 0.125598 0.0680808 0.0386106 0.101412 0.130045 0.0928784 0.0811894 0.174702 0.0521568 -0.00171953 0.134816 0.12802 0.151757 0.231371 0.301879 -0.00100654 0.117005
internal_weight=377000 303192 30215 23828 20484 8788 11696 7852 272977 4793 117197 7419 3825 628 3059 3594 3344 964 1152 1008 144 644 103308 6387 5007 1587 167 103 98527 3420
internal_count=377000 303192 30215 23828 20484 8788 11696 7852 272977 4793 117197 7419 3825 628 3059 3594 3344 964 1152 1008 144 644 103308 6387 5007 1587 167 103 98527 3420
is_linear=0
shrinkage=0.05


Tree=21
num_leaves=31
num_cat=0
split_feature=0 0 0 3 1 0 3 0 0 3 2 0 0 0 0 0 0 0 0 0 3 0 0 0 3 3 2 2 2 1
split_gain=8828.14 52974.8 12104 3546.13 864.133 697.393 587.402 616.625 6288.27 537.469 875.422 536.063 530.835 2425.57 711.338 997.188 482.593 2166.26 2932.11 679.561 505.784 469.398 468.788 675.395 1182.72 750.506 847.397 569.565 538.304 468.203
threshold=1.0000000180025095e-35 0.76000000000000012 0.49000000000000005 2012.5000000000002 3.5000000000000004 0.95000000000000007 2013.5000000000002 21.875000000000004 23.480000000000004 2011.5000000000002 8.5000000000000018 0.71000000000000008 1.1000000000000003 1.0400000000000003 0.97500000000000009 0.9900000000000001 8.9750000000000032 9.9750000000000032 9.9450000000000021 9.2000000000000011 2014.5000000000002 0.69000000000000006 0.57500000000000007 0.69000000000000006 2013.5000000000002 2013.5000000000002 10.500000000000002 6.5000000000000009 8.5000000000000018 3.5000000000000004
decision_type=2 2 2 2 2 2 2 2 2 2 2 2 2 2 2 2 2 2 2 2 2 2 2 2 2 2 2 2 2 2
left_child=-1 2 -2 4 9 -3 29 12 -9 -4 21 22 13 14 -8 -16 -14 18 19 -18 -20 -11 -5 24 27 26 -25 -24 -29 -7
right_child=1 5 3 11 -6 6 7 8 -10 10 -12 -13 16 -15 15 -17 17 -19 20 -21 -22 -23 23 25 -26 -27 -28 28 -30 -31
leaf_value=-0.015507477521896363 0.12807547828478291 0.02116467551880408 0.083443101979459505 0.057107313672606734 0.09634940570660977 -0.0035412142440350868 -0.033685478203581025 0.1950879255547581 -0.02409958364929626 0.088234494603239011 0.010068942980158292 0.06656027656618678 -0.0085355796434494584 0.13844955526454292 0.051265172980299624 -0.0094118481416238728 0.026569011986298487 -0.006715121705707568 0.053700126861158305 -0.011657166815939405 0.11058297877052664 0.032429577038523609 0.085993171156029016 -0.02196704239711552 0.001445907429766601 0.047986759243829315 0.062396214215550576 -0.036451062127467126 0.054015225391132675 0.0026020935152391489
leaf_weight=73808 6387 2923 1904 1834 3441 72306 1113 415 1547 1152 947 1346 93545 345 1084 1804 2087 37700 730 2625 841 560 724 887 3742 5708 448 248 488 54311
leaf_count=73808 6387 2923 1904 1834 3441 72306 1113 415 1547 1152 947 1346 93545 345 1084 1804 2087 37700 730 2625 841 560 724 887 3742 5708 448 248 488 54311
internal_value=2.27842e-10 0.00377509 0.0670601 0.0504267 0.0774308 -0.00312716 -0.0033897 -0.00557597 0.0222627 0.0631641 0.0486431 0.0364143 -0.00596095 0.0112438 0.000275065 0.013363 -0.00650464 -0.00218515 0.0249962 0.00527366 0.0841511 0.0699805 0.0335323 0.0300013 0.0163378 0.0400933 0.00634362 0.0545059 0.023532 -0.000906108
internal_weight=377000 303192 29816 23429 8004 273376 270453 143836 1962 4563 2659 15425 141874 4346 4001 2888 137528 43983 6283 4712 1571 1712 14079 12245 5202 7043 1335 1460 736 126617
internal_count=377000 303192 29816 23429 8004 273376 270453 143836 1962 4563 2659 15425 141874 4346 4001 2888 137528 43983 6283 4712 1571 1712 14079 12245 5202 7043 1335 1460 736 126617
is_linear=0
shrinkage=0.05


Tree=22
num_leaves=31
num_cat=0
split_feature=0 0 0 3 1 0 0 1 3 2 1 0 0 2 3 0 0 0 1 0 0 0 3 3 2 3 3 3 0 0
split_gain=7967.4 47809.7 10923.9 3200.38 779.88 641.513 819.343 520.464 485.066 790.068 456.704 612.012 740.538 830.488 1127.15 441.804 2424.62 2015.01 821.334 603.796 591.726 11235.4 1239.41 752.443 498.867 462.925 456.47 425.995 505.928 9453.67
threshold=1.0000000180025095e-35 0.76000000000000012 0.49000000000000005 2012.5000000000002 3.5000000000000004 1.925 2.4200000000000004 3.5000000000000004 2011.5000000000002 8.5000000000000018 5.5000000000000009 0.63000000000000012 0.52000000000000013 4.5000000000000009 2011.5000000000002 5.9750000000000005 4.6500000000000012 4.6100000000000003 4.5000000000000009 5.4750000000000005 9.9750000000000032 9.9450000000000021 2013.5000000000002 2011.5000000000002 5.5000000000000009 2012.5000000000002 2014.5000000000002 2013.5000000000002 3.9550000000000005 3.8250000000000006
decision_type=2 2 2 2 2 2 2 2 2 2 2 2 2 2 2 2 2 2 2 2 2 2 2 2 2 2 2 2 2 2
left_child=-1 2 -2 4 8 -3 -7 -5 -4 -10 11 12 13 -6 -15 16 17 27 -19 -18 21 -17 23 -23 -25 -26 -24 -8 29 -29
right_child=1 5 3 7 10 6 15 -9 9 -11 -12 -13 -14 14 -16 20 19 18 -20 -21 -22 22 26 24 25 -27 -28 28 -30 -31
leaf_value=-0.014732104539871217 0.12167170437723451 0.0035947818602830028 0.079270944304122515 0.026634105399588454 0.19582409494157349 -0.017108619782484617 0.0026522890600966667 0.045191493015051508 0.066481522322473535 0.0095654947500294352 0.06585508221695717 0.070046498369398483 0.16041537141584364 0.1385147451603915 0.0012734501293418631 -0.0020809373916764237 -0.012006209215979764 0.039010701523804515 0.13328784065390076 -0.026350779129829405 -0.0045840655932474503 0.040849644227290718 0.051015118600111709 0.1222437698996884 0.25875275088082478 0.15884093778546562 0.10505382915522449 -0.0080789749703505873 -0.015991377536445413 0.16223189072527319
leaf_weight=73808 6387 32748 1904 8809 147 11137 32648 6616 1712 947 1152 826 712 273 331 61589 21814 805 324 11053 68082 127 730 303 214 253 841 21439 8422 847
leaf_count=73808 6387 32748 1904 8809 147 11137 32648 6616 1712 947 1152 826 712 273 331 61589 21814 805 324 11053 68082 127 730 303 214 253 841 21439 8422 847
internal_value=-1.97905e-10 0.00358633 0.0637071 0.0479054 0.0735592 -0.0029708 -0.00386433 0.0345936 0.0600059 0.0462109 0.0915319 0.104454 0.123881 0.0892439 0.0633047 -0.0032216 -0.00577751 -0.000144116 0.0660663 -0.0168302 -0.00133856 0.00211087 0.106718 0.153609 0.172207 0.204625 0.0799435 -0.00132398 -0.00555146 -0.00160615
internal_weight=377000 303192 29816 23429 8004 273376 240628 15425 4563 2659 3441 2289 1463 751 604 229491 97352 64485 1129 32867 132139 64057 2468 897 770 467 1571 63356 30708 22286
internal_count=377000 303192 29816 23429 8004 273376 240628 15425 4563 2659 3441 2289 1463 751 604 229491 97352 64485 1129 32867 132139 64057 2468 897 770 467 1571 63356 30708 22286
is_linear=0
shrinkage=0.05


Tree=23
num_leaves=31
num_cat=0
split_feature=0 0 0 3 2 0 0 0 3 0 0 1 3 1 0 0 2 0 2 2 0 0 1 0 0 0 2 3 1 2
split_gain=7190.58 43173.9 9967.75 2771.62 897.621 1478.26 874.001 872.597 646.17 855.114 804.458 584.124 583.108 558.491 556.912 794.254 566.181 487.225 426.098 612.427 473.355 426.301 425.458 407.069 399.387 455.963 393.566 428.758 427.175 617.594
threshold=1.0000000180025095e-35 0.89000000000000001 0.49000000000000005 2011.5000000000002 6.5000000000000009 0.63000000000000012 0.69000000000000006 0.55500000000000005 2012.5000000000002 0.69000000000000006 0.57500000000000007 4.5000000000000009 2012.5000000000002 3.5000000000000004 0.69000000000000006 0.71000000000000008 10.500000000000002 0.52000000000000013 5.5000000000000009 4.5000000000000009 0.52000000000000013 0.57500000000000007 4.5000000000000009 0.69000000000000006 1.925 1.7250000000000003 10.500000000000002 2013.5000000000002 4.5000000000000009 7.5000000000000009
decision_type=2 2 2 2 2 2 2 2 2 2 2 2 2 2 2 2 2 2 2 2 2 2 2 2 2 2 2 2 2 2
left_child=-1 2 26 23 5 12 -7 -6 14 10 -10 -3 18 -8 16 -16 -9 -14 19 20 -5 -21 -17 -4 25 -13 27 28 -2 -30
right_child=1 11 3 4 7 6 13 8 9 -11 -12 24 17 -15 15 22 -18 -19 -20 21 -22 -23 -24 -25 -26 -27 -28 -29 29 -31
leaf_value=-0.013995498418807983 0.077398950148831344 -0.0043364564786842223 0.09832408520228382 0.13843070311887451 -0.018924729408659611 -0.0088821313685232516 0.027603506846608734 0.12368539937325125 0.053811204830265573 0.041701739288581778 -0.005222061074477263 0.0027781403844213707 -0.056283605098724369 0.060055513539067386 -0.10624859482049942 0.027624500063247983 0.030529773970455178 0.062111402430409003 0.15840673589380461 -0.050152587013379227 0.068501944146465418 0.080956386435296276 0.10347226607541626 0.059454246982533668 -0.00053145321182677615 0.026396424622936666 0.14594050654866658 0.12112273785546959 0.15672655056538357 0.032750826449348375
leaf_weight=73808 1425 194725 2409 484 914 1017 3064 492 736 3951 2673 6234 90 2337 90 640 244 2520 240 124 484 124 260 935 68978 3040 915 3475 442 130
leaf_count=73808 1425 194725 2409 484 914 1017 3064 492 736 3951 2673 6234 90 2337 90 640 244 2520 240 124 484 124 260 935 68978 3040 915 3475 442 130
internal_value=2.24695e-10 0.00340702 0.0601188 0.0452505 0.0383605 0.0485828 0.0336388 0.0276435 0.032328 0.0258709 0.00752317 -0.00287025 0.0721712 0.0416454 0.0598624 0.0353738 0.0928023 0.0580288 0.0975225 0.0855058 0.103466 0.0154019 0.0495361 0.0874559 0.000778325 0.0105202 0.115588 0.110513 0.0920502 0.12855
internal_weight=377000 303192 30215 23828 20484 10484 6418 10000 9086 7360 3409 272977 4066 5401 1726 990 736 2610 1456 1216 968 248 900 3344 78252 9274 6387 5472 1997 572
internal_count=377000 303192 30215 23828 20484 10484 6418 10000 9086 7360 3409 272977 4066 5401 1726 990 736 2610 1456 1216 968 248 900 3344 78252 9274 6387 5472 1997 572
is_linear=0
shrinkage=0.05


Tree=24
num_leaves=31
num_cat=0
split_feature=0 0 0 3 1 0 2 0 1 0 1 1 2 0 2 3 0 2 0 2 1 1 1 1 2 0 0 0 0 1
split_gain=6489.5 38964.5 8995.89 2501.39 840.707 671.987 531.756 950.896 527.172 389.779 384.39 521.018 376.937 367.46 364.072 849.543 394.325 360.86 460.902 424.284 480.834 491.027 366.523 464.836 518.181 360.447 411.765 386.492 1240.37 358.738
threshold=1.0000000180025095e-35 0.89000000000000001 0.49000000000000005 2011.5000000000002 3.5000000000000004 0.71000000000000008 7.5000000000000009 0.63000000000000012 4.5000000000000009 0.69000000000000006 4.5000000000000009 5.5000000000000009 8.5000000000000018 0.63000000000000012 6.5000000000000009 2014.5000000000002 0.55500000000000005 9.5000000000000018 0.46500000000000002 1.5000000000000002 2.5000000000000004 3.5000000000000004 5.5000000000000009 3.5000000000000004 11.500000000000002 1.925 1.4950000000000003 1.1000000000000003 1.0400000000000003 3.5000000000000004
decision_type=2 2 2 2 2 2 2 2 2 2 2 2 2 2 2 2 2 2 2 2 2 2 2 2 2 2 2 2 2 2
left_child=-1 2 17 10 6 14 7 -5 -3 -9 12 13 -4 -12 15 -6 -16 18 29 20 -20 -22 23 -19 -25 26 27 28 -10 -2
right_child=1 8 3 4 5 -7 -8 9 25 -11 11 -13 -14 -15 16 -17 -18 22 19 -21 21 -23 -24 24 -26 -27 -28 -29 -30 -31
leaf_value=-0.013295723497867585 0.079175446848361156 -0.0041196339748602994 0.054704408736935745 0.05970500618906386 0.073318479971208148 0.080314992774492902 0.014797312712961011 -0.013422877398963765 0.0073414174929563383 0.028268102770186293 0.18126764600070155 0.07250034215257449 0.094803946822327734 0.092611158976196942 -0.016504249063915271 0.025697650101322397 0.03656552250868992 0.12096617882965871 0.09359456948004663 0.1169728968140315 0.49049996398389339 0.21451372859707796 0.068925031213424151 0.22603317496539269 0.10115959469228984 -0.00050488051940691492 0.023208946209777145 -0.013566312790858346 0.18620374257117511 0.11188661612313698
leaf_weight=73808 1950 194725 1336 2697 2187 1369 4762 665 3156 3572 294 476 1044 194 393 1638 3201 795 64 1420 20 83 195 270 120 68978 3604 2414 100 1470
leaf_count=73808 1950 194725 1336 2697 2187 1369 4762 665 3156 3572 294 476 1044 194 393 1638 3201 795 64 1420 20 83 195 270 120 68978 3604 2414 100 1470
internal_value=2.74444e-11 0.00323666 0.0571129 0.042988 0.0364425 0.0481283 0.0276622 0.0364972 -0.00272673 0.0217247 0.0830831 0.109719 0.0722943 0.146023 0.042189 0.0529256 0.0307624 0.109809 0.103569 0.125839 0.201226 0.268103 0.132447 0.1429 0.187611 0.000739409 0.00999416 0.0015945 0.0128347 0.0932355
internal_weight=377000 303192 30215 23828 20484 8788 11696 6934 272977 4237 3344 964 2380 488 7419 3825 3594 6387 5007 1587 167 103 1380 1185 390 78252 9274 5670 3256 3420
internal_count=377000 303192 30215 23828 20484 8788 11696 6934 272977 4237 3344 964 2380 488 7419 3825 3594 6387 5007 1587 167 103 1380 1185 390 78252 9274 5670 3256 3420
is_linear=0
shrinkage=0.05


Tree=25
num_leaves=31
num_cat=0
split_feature=0 0 0 3 1 0 3 0 0 0 0 0 0 0 0 0 0 0 0 0 0 0 0 3 0 1 0 0 2 3
split_gain=5856.77 35175.6 8022.71 2450.63 637.726 570.94 506.438 559.257 5675.12 452.278 451.841 2767.23 959.151 855.25 448.967 447.635 1668.17 2364.5 613.312 538.521 2103.32 642.078 899.953 411.948 408.048 397.244 540.853 616.656 692.346 846.709
threshold=1.0000000180025095e-35 0.76000000000000012 0.49000000000000005 2012.5000000000002 3.5000000000000004 0.95000000000000007 2013.5000000000002 21.875000000000004 23.480000000000004 19.430000000000003 19.920000000000005 18.850000000000005 15.225000000000003 13.830000000000002 0.71000000000000008 8.9750000000000032 9.9750000000000032 9.9450000000000021 9.2000000000000011 1.1000000000000003 1.0400000000000003 0.97500000000000009 0.9900000000000001 2014.5000000000002 18.850000000000005 5.5000000000000009 0.63000000000000012 0.52000000000000013 6.5000000000000009 2011.5000000000002
decision_type=2 2 2 2 2 2 2 2 2 2 2 2 2 2 2 2 2 2 2 2 2 2 2 2 2 2 2 2 2 2
left_child=-1 2 -2 4 -4 -3 9 10 -9 24 11 12 13 15 -5 19 17 18 -17 20 21 -8 -23 -19 -7 26 27 28 -6 -30
right_child=1 5 3 14 25 6 7 8 -10 -11 -12 -13 -14 -15 -16 16 -18 23 -20 -21 -22 22 -24 -25 -26 -27 -28 -29 29 -31
leaf_value=-0.012630937993526459 0.10431827815082313 0.019429854935992877 0.051294520945695837 0.026815740164123004 0.14148995165267717 -0.00021896879754539696 -0.032025173863417807 0.18587826535195473 -0.022349072957162174 -0.024582812583378102 -0.021013731975683934 0.071074523227484157 -0.026354950711353589 0.022749754260505805 0.057041772639304184 0.025661112188357572 -0.005786808054018544 0.048781461013761698 -0.010654018556504023 -0.0075508498014290508 0.12890872276131657 0.048681081698801906 -0.0089617912603868477 0.10011719126901042 0.075326975476641911 0.055855817836547632 0.059509062578734777 0.14345594901915934 0.11501429533516919 -0.019048140753190029
leaf_weight=73808 6387 2923 4563 14079 276 124521 1113 415 1547 1917 4369 1195 5224 2816 1346 2087 24096 730 2625 93545 345 1084 1804 841 179 1152 826 712 216 259
leaf_count=73808 6387 2923 4563 14079 276 124521 1113 415 1547 1917 4369 1195 5224 2816 1346 2087 24096 730 2625 93545 345 1084 1804 841 179 1152 826 712 216 259
internal_value=-5.85049e-11 0.00307483 0.0546437 0.0411019 0.0635506 -0.00254957 -0.00278712 -0.00481714 0.0216949 -0.000481041 -0.00518378 -0.00468081 -0.00534494 -0.00450765 0.0294533 -0.00510605 0.000196124 0.0231413 0.00543038 -0.0067515 0.0104539 0.000239741 0.0126742 0.0762629 -0.000110527 0.0798029 0.0918549 0.110117 0.0785098 0.041915
internal_weight=377000 303192 29816 23429 8004 273376 270453 143836 1962 126617 141874 137505 136310 131086 15425 128270 30379 6283 4712 97891 4346 4001 2888 1571 124700 3441 2289 1463 751 475
internal_count=377000 303192 29816 23429 8004 273376 270453 143836 1962 126617 141874 137505 136310 131086 15425 128270 30379 6283 4712 97891 4346 4001 2888 1571 124700 3441 2289 1463 751 475
is_linear=0
shrinkage=0.05


Tree=26
num_leaves=31
num_cat=0
split_feature=0 0 0 3 1 1 2 0 2 0 0 3 3 2 2 1 0 0 2 3 0 0 0 3 0 0 0 0 1 0
split_gain=5285.74 31746 7240.49 2211.69 592.967 759.941 861.667 631.119 531.714 677.951 515.273 476.782 474.693 1013.78 612.854 462.097 448.202 933.831 431.505 420.356 415.485 2653.91 7740.21 1729.52 693.95 1950.09 1165.49 758.566 735.114 588.808
threshold=1.0000000180025095e-35 0.76000000000000012 0.49000000000000005 2012.5000000000002 4.5000000000000009 5.5000000000000009 2.5000000000000004 0.69000000000000006 1.5000000000000002 0.52000000000000013 0.95000000000000007 2011.5000000000002 2011.5000000000002 6.5000000000000009 11.500000000000002 1.0000000180025095e-35 0.97500000000000009 0.9900000000000001 5.5000000000000009 2011.5000000000002 8.9650000000000016 9.9750000000000032 9.9450000000000021 2013.5000000000002 4.6500000000000012 4.6100000000000003 5.9750000000000005 8.5000000000000018 4.5000000000000009 9.2000000000000011
decision_type=2 2 2 2 2 2 2 2 2 2 2 2 2 2 2 2 2 2 2 2 2 2 2 2 2 2 2 2 2 2
left_child=-1 2 -2 4 7 6 -6 8 15 12 -3 -12 14 18 -10 -4 -13 -18 -14 -8 24 22 29 -24 25 -19 -26 -28 -27 -22
right_child=1 10 3 -5 5 -7 19 -9 9 -11 11 16 13 -15 -16 -17 17 20 -20 -21 21 -23 23 -25 26 28 27 -29 -30 -31
leaf_value=-0.01199939101934433 0.099102363906161645 0.018458363043448309 -0.0015608664078172298 0.02798062724799576 0.24097903079369615 0.053063026214637911 0.13114247095077597 0.026939592275080679 0.050901384970014979 0.07911398942362341 0.0036026576083827023 -0.032266173238984112 0.050616930094386996 -0.023654817604101624 0.19201875801452184 0.19176655339131898 0.02770388761426806 -0.0027774690884398152 0.17687977194076493 0.067219871832025033 0.012900244303933862 -0.0046424878960390596 0.16392431625394854 0.072449759779916509 -0.015977928887569753 0.037759415568402094 -0.00064825289526175599 -0.0195985042467587 0.12695097863813576 -0.011088702323470312
leaf_weight=73808 6387 2923 40 15425 114 1152 470 1771 612 1971 27417 1333 348 650 88 136 2421 88011 84 568 5532 62765 770 1571 30569 805 38045 6132 324 4758
leaf_count=73808 6387 2923 40 15425 114 1152 470 1771 612 1971 27417 1333 348 650 88 136 2421 88011 84 568 5532 62765 770 1571 30569 805 38045 6132 324 4758
internal_value=1.6067e-10 0.00292109 0.0519115 0.0390468 0.060373 0.0817787 0.110494 0.0517207 0.0628907 0.0589075 -0.0024221 -0.00264777 0.0365579 0.0158013 0.0686419 0.147829 -0.00335288 -0.00319342 0.075168 0.0961636 -0.00350603 -0.000434258 0.020477 0.102538 -0.00491921 -0.00193986 -0.00847229 -0.00327865 0.0633556 0.00180798
internal_weight=377000 303192 29816 23429 8004 2304 1152 5700 3929 3753 273376 270453 1782 1082 700 176 243036 241703 432 1038 239282 75396 12631 2341 163886 89140 74746 44177 1129 10290
internal_count=377000 303192 29816 23429 8004 2304 1152 5700 3929 3753 273376 270453 1782 1082 700 176 243036 241703 432 1038 239282 75396 12631 2341 163886 89140 74746 44177 1129 10290
is_linear=0
shrinkage=0.05


Tree=27
num_leaves=31
num_cat=0
split_feature=0 0 0 3 1 0 1 2 0 3 0 2 3 1 3 1 2 2 2 1 2 2 1 0 0 0 0 1 1 2
split_gain=4770.38 28652 6610.56 1923.69 721.206 571.343 479.061 467.41 801.03 356.174 353.131 335.299 374.049 368.607 584.946 1182.78 661.174 493.541 789.558 426.365 351.348 759.163 325.981 326.99 321.456 3135.27 311.189 463.14 769.417 306.385
threshold=1.0000000180025095e-35 0.89000000000000001 0.49000000000000005 2011.5000000000002 3.5000000000000004 0.71000000000000008 3.5000000000000004 8.5000000000000018 0.63000000000000012 2013.5000000000002 0.69000000000000006 10.500000000000002 2013.5000000000002 4.5000000000000009 2012.5000000000002 5.5000000000000009 2.5000000000000004 3.5000000000000004 7.5000000000000009 5.5000000000000009 6.5000000000000009 2.5000000000000004 1.5000000000000002 0.71000000000000008 21.875000000000004 23.480000000000004 0.47500000000000003 1.5000000000000002 1.0000000180025095e-35 6.5000000000000009
decision_type=2 2 2 2 2 2 2 2 2 2 2 2 2 2 2 2 2 2 2 2 2 2 2 2 2 2 2 2 2 2
left_child=-1 2 11 22 7 29 -3 8 -5 -8 -10 12 13 -2 15 -15 -17 19 -19 -16 21 26 -4 -24 -11 -26 -14 28 -28 -6
right_child=1 6 3 4 5 -7 9 -9 10 24 -12 -13 20 14 17 16 -18 18 -20 -21 -22 -23 23 -25 25 -27 27 -29 -30 -31
leaf_value=-0.011399421095848085 0.058608319266866729 -0.0041554705123641273 0.047282657269858017 0.049977910659082928 0.04632269281302305 0.07162857055368986 0.0030228904754071497 0.0087084481292031123 -0.014330984070339307 -0.0029217185961160214 0.02306558662829794 0.1221628423242275 0.1023980378195391 0.32166506271855333 0.082184188934889713 -0.11230872543794768 0.17606609871853954 0.17849195336594303 0.014800342923173539 -0.11469258806922221 0.12085174695035912 0.064040202881687255 0.087641556274248383 0.022595406379902139 0.21389257992779079 -0.021851741492300108 0.20796759684880572 0.20400482355855232 -0.093419044613838209 0.025991091062982027
leaf_weight=73808 1425 155780 952 3059 3825 1369 54693 3844 748 61660 4045 915 590 81 55 35 46 170 130 55 1230 1355 2180 212 179 665 45 215 40 3594
leaf_count=73808 1425 155780 952 3059 3825 1369 54693 3844 748 61660 4045 915 590 81 55 35 46 170 130 55 1230 1355 2180 212 179 665 45 215 40 3594
internal_value=1.64406e-10 0.00277504 0.0489748 0.0368665 0.0311265 0.0419499 -0.00233868 0.0229941 0.0299877 7.62233e-05 0.0172294 0.0941472 0.0894626 0.0722182 0.106124 0.186562 0.0514597 0.0743408 0.107559 -0.0162542 0.0993726 0.0876045 0.0720281 0.0818766 -0.0025022 0.0281462 0.123481 0.164943 0.0661386 0.0364734
internal_weight=377000 303192 30215 23828 20484 8788 272977 11696 7852 117197 4793 6387 5472 1997 572 162 81 410 300 110 3475 2245 3344 2392 62504 844 890 300 85 7419
internal_count=377000 303192 30215 23828 20484 8788 272977 11696 7852 117197 4793 6387 5472 1997 572 162 81 410 300 110 3475 2245 3344 2392 62504 844 890 300 85 7419
is_linear=0
shrinkage=0.05


Tree=28
num_leaves=31
num_cat=0
split_feature=0 0 0 3 1 1 2 0 2 0 0 0 0 0 0 0 0 3 3 2 0 0 0 3 0 0 0 0 0 0
split_gain=4305.26 25871.3 5894.11 1852.98 509.814 685.325 782.234 550.475 481.013 603.814 468.524 679.613 1418.22 497.807 1854.61 467.466 8720.23 1126.81 594.671 450.14 438.948 555.68 1901.14 506.612 427.111 2426.4 788.764 1053.09 729.185 2879.51
threshold=1.0000000180025095e-35 0.76000000000000012 0.49000000000000005 2012.5000000000002 4.5000000000000009 5.5000000000000009 2.5000000000000004 0.69000000000000006 1.5000000000000002 0.52000000000000013 1.7750000000000001 2.8350000000000004 2.9000000000000004 5.9750000000000005 4.9250000000000007 9.9750000000000032 9.9450000000000021 2013.5000000000002 2011.5000000000002 5.5000000000000009 1.7250000000000003 1.1000000000000003 1.0400000000000003 2011.5000000000002 12.730000000000002 12.81 12.925000000000002 15.225000000000003 18.345000000000002 19.430000000000003
decision_type=2 2 2 2 2 2 2 2 2 2 2 2 2 2 2 2 2 2 2 2 2 2 2 2 2 2 2 2 2 2
left_child=-1 2 -2 4 7 6 -6 8 -4 -10 20 -12 -13 14 -14 16 -15 18 -18 -20 21 22 -3 -23 -17 -26 -27 -28 -29 -30
right_child=1 10 3 -5 5 -7 -8 -9 9 -11 11 12 13 15 -16 24 17 -19 19 -21 -22 23 -24 -25 25 26 27 28 29 -31
leaf_value=-0.010829450190067293 0.089439884138735243 0.0036516630365482695 0.13797140845774927 0.025125891047327615 0.22621786208137085 0.04735393258225587 0.088238741844167551 0.023608817280653258 0.032303819604694646 0.072465677897931124 -0.010839023475572248 0.028395272404391398 -0.0013188593149956141 -0.0013128399900290853 -0.018773724801881456 -0.0081950925479668518 0.039005035631299957 0.069008540595891427 0.10832119776372469 0.18657571130314529 0.012616581676497455 0.02123142337837465 0.1227832920698152 -0.0128046881864032 0.069025772278058214 -0.019996711041050459 0.0097169562735593597 -0.020648198820984797 0.065305500242297781 -0.010874924016845432
leaf_weight=73808 6387 11425 176 15425 114 1152 1038 1771 1782 1971 24444 3760 61270 61589 20247 28804 127 1571 303 467 9373 1242 345 9131 1227 5461 15949 6933 1460 8248
leaf_count=73808 6387 11425 176 15425 114 1152 1038 1771 1782 1971 24444 3760 61270 61589 20247 28804 127 1571 303 467 9373 1242 345 9131 1227 5461 15949 6933 1460 8248
internal_value=4.86661e-11 0.00263628 0.0468621 0.035255 0.0547753 0.0746234 0.101893 0.0467525 0.0571846 0.053396 -0.00218725 -0.00293445 -0.00204574 -0.00258146 -0.00565426 -0.000685836 0.00238009 0.0945374 0.139248 0.155782 0.00354695 -0.000292178 0.00714363 -0.00872941 -0.00357051 -0.000179133 -0.00241073 0.000536098 -0.00826298 0.000581959
internal_weight=377000 303192 29816 23429 8004 2304 1152 5700 3929 3753 273376 241860 217416 213656 81517 132139 64057 2468 897 770 31516 22143 11770 10373 68082 39278 38051 32590 16641 9708
internal_count=377000 303192 29816 23429 8004 2304 1152 5700 3929 3753 273376 241860 217416 213656 81517 132139 64057 2468 897 770 31516 22143 11770 10373 68082 39278 38051 32590 16641 9708
is_linear=0
shrinkage=0.05


Tree=29
num_leaves=31
num_cat=0
split_feature=0 0 0 3 1 0 1 2 0 0 1 1 3 1 2 2 2 2 0 0 0 0 0 0 0 0 0 2 2 2
split_gain=3885.5 23350.3 5381.25 1638.34 634.107 508.055 437.572 421.266 700.834 314.607 305.591 821.675 360.27 436.286 333.121 472.846 455.103 312.741 288.397 376.838 299.286 289.739 368.025 1697.9 813.301 286.448 285.841 278.25 348.301 274.23
threshold=1.0000000180025095e-35 0.89000000000000001 0.49000000000000005 2011.5000000000002 3.5000000000000004 0.71000000000000008 4.5000000000000009 7.5000000000000009 0.63000000000000012 0.69000000000000006 3.5000000000000004 5.5000000000000009 2013.5000000000002 1.0000000180025095e-35 9.5000000000000018 11.500000000000002 2.5000000000000004 11.500000000000002 1.925 1.4950000000000003 0.95000000000000007 2.7250000000000005 4.6500000000000012 4.6100000000000003 5.9750000000000005 0.63000000000000012 0.55500000000000005 5.5000000000000009 6.5000000000000009 6.5000000000000009
decision_type=2 2 2 2 2 2 2 2 2 2 2 2 2 2 2 2 2 2 2 2 2 2 2 2 2 2 2 2 2 2
left_child=-1 2 10 25 7 29 -3 8 -5 -10 12 14 13 27 16 -16 -12 -14 19 20 -8 -20 23 -23 -24 -4 -9 -2 -29 -6
right_child=1 6 3 4 5 -7 18 26 9 -11 11 -13 17 -15 15 -17 -18 -19 21 -21 -22 22 24 -25 -26 -27 -28 28 -30 -31
leaf_value=-0.010287977755069733 0.061172785000367602 -0.0033809773204207883 0.077657781763196876 0.048151811332610039 0.042292334210200642 0.066125175068216163 0.031313396158797961 -0.029721962275176213 -0.016031297997648557 0.021424313878988868 0.15250657916399735 0.058925473979190318 0.081827051961450695 0.037825468144287659 0.19463643694124014 0.07535044724742572 0.08886606043462679 0.14876253046487506 -0.01097088086313331 0.021966097647578484 -0.003106387387497936 0.0051014817467373279 -0.014470964447976527 0.12073289267143901 0.0019445427425748806 0.047773002170171518 0.012797633483588373 0.34777413338422775 0.1241951072436792 0.023057203794143884
leaf_weight=73808 176 194725 2010 2697 3825 1369 724 435 665 3572 383 916 2140 983 270 120 1054 190 5598 3604 4946 15750 9422 324 37884 1334 4327 20 135 3594
leaf_count=73808 176 194725 2010 2697 3825 1369 724 435 665 3572 383 916 2140 983 270 120 1054 190 5598 3604 4946 15750 9422 324 37884 1334 4327 20 135 3594
internal_value=9.52774e-11 0.00250447 0.0442115 0.0332869 0.0279896 0.0381385 -0.00211196 0.0203641 0.0282279 0.0155456 0.0849679 0.0975736 0.075479 0.0545439 0.116951 0.157933 0.105828 0.0872853 0.00104592 0.00932419 0.00128866 -6.70876e-05 0.000895983 0.00743224 -0.00132496 0.065736 0.00891355 0.104194 0.153044 0.0329742
internal_weight=377000 303192 30215 23828 20484 8788 272977 11696 6934 4237 6387 2743 3644 1314 1827 390 1437 2330 78252 9274 5670 68978 63380 16074 47306 3344 4762 331 155 7419
internal_count=377000 303192 30215 23828 20484 8788 272977 11696 6934 4237 6387 2743 3644 1314 1827 390 1437 2330 78252 9274 5670 68978 63380 16074 47306 3344 4762 331 155 7419
is_linear=0
shrinkage=0.05


Tree=30
num_leaves=31
num_cat=0
split_feature=0 0 0 3 1 1 2 0 2 0 3 0 0 0 0 1 0 0 0 0 0 0 0 0 0 0 3 0 0 0
split_gain=3506.67 21084.7 4797.87 1568.13 442.49 618.08 707.494 480.281 433.111 527.136 428.519 504.606 1658.95 514.902 4861.94 417.551 407.454 580.433 548.087 419.115 1054.02 11314.2 1173.02 4177.83 740.723 447.376 430.041 428.919 519.523 475.499
threshold=1.0000000180025095e-35 0.76000000000000012 0.49000000000000005 2012.5000000000002 4.5000000000000009 5.5000000000000009 2.5000000000000004 0.69000000000000006 1.5000000000000002 0.52000000000000013 2013.5000000000002 1.1000000000000003 1.0400000000000003 21.875000000000004 23.480000000000004 1.0000000180025095e-35 1.925 1.7250000000000003 2.4700000000000002 3.7050000000000005 3.3600000000000003 3.3900000000000001 3.5500000000000003 3.6150000000000007 5.9750000000000005 19.430000000000003 2012.5000000000002 5.4750000000000005 3.9750000000000005 4.6500000000000012
decision_type=2 2 2 2 2 2 2 2 2 2 2 2 2 2 2 2 2 2 2 2 2 2 2 2 2 2 2 2 2 2
left_child=-1 2 -2 4 7 6 -6 8 15 -10 16 12 -12 -13 -15 -4 17 -3 -18 20 -20 -22 -23 -24 27 -26 -25 28 -21 -30
right_child=1 10 3 -5 5 -7 -8 -9 9 -11 11 13 -14 14 -16 -17 18 -19 19 24 21 22 23 26 25 -27 -28 -29 29 -31
leaf_value=-0.0097735792398452766 0.080719495268227429 0.00089568135387552031 -0.013287877030670643 0.022514420538404096 0.21241458337427233 0.042383922516991239 0.081192616477945373 0.020697697018547154 0.028757294083032948 0.066282529332287579 0.0038727301175876024 -0.0048048115120418551 0.11680919460628343 0.17295756529433182 -0.019775000034452796 0.17048510374939618 -0.016404943406339852 0.021807809451331629 -0.0012875275633024669 -0.025531289626399389 0.25200937870192813 -0.010522202885299509 0.20977268516510522 -0.01232035706922846 0.0021204155210310278 -0.022431742387105227 0.036889815271308982 -0.021524547737125546 0.007055540421142998 -0.0096439641868935298
leaf_weight=73808 6387 9888 40 15425 114 1152 1038 1771 1782 1971 5656 137528 345 415 1547 136 5418 4994 15569 2795 497 4332 294 1133 57721 1917 730 5296 7610 9691
leaf_count=73808 6387 9888 40 15425 114 1152 1038 1771 1782 1971 5656 137528 345 415 1547 136 5418 4994 15569 2795 497 4332 294 1133 57721 1917 730 5296 7610 9691
internal_value=-9.40102e-11 0.00237925 0.0423047 0.0318325 0.0497898 0.068281 0.0941781 0.0423155 0.0520598 0.0484648 -0.00197526 -0.00383122 0.0103655 -0.00444197 0.0209916 0.128719 0.000136195 0.00791323 -0.000888006 -0.00010657 0.00595277 0.0220885 0.00447859 0.0346054 -0.00171387 0.00133121 0.00696221 -0.00886582 -0.0055298 -0.00229854
internal_weight=377000 303192 29816 23429 8004 2304 1152 5700 3929 3753 273376 145491 6001 139490 1962 176 127885 14882 113003 107585 22555 6986 6489 2157 85030 59638 1863 25392 20096 17301
internal_count=377000 303192 29816 23429 8004 2304 1152 5700 3929 3753 273376 145491 6001 139490 1962 176 127885 14882 113003 107585 22555 6986 6489 2157 85030 59638 1863 25392 20096 17301
is_linear=0
shrinkage=0.05


Tree=31
num_leaves=31
num_cat=0
split_feature=0 0 0 3 2 3 0 0 0 1 1 3 0 0 2 0 1 0 0 0 3 1 2 2 3 2 2 1 1 3
split_gain=3164.77 19031.2 4380.19 1395.74 567.705 944.198 702.437 593.413 450.81 421.456 401.115 377.556 745.519 712.868 433.441 509.747 343.935 324.264 308.8 305.926 298.481 297.33 653.387 281.12 314.343 350.297 899.794 581.233 1157.23 670.433
threshold=1.0000000180025095e-35 0.89000000000000001 0.49000000000000005 2011.5000000000002 6.5000000000000009 2014.5000000000002 0.55500000000000005 0.57500000000000007 0.63000000000000012 3.5000000000000004 3.5000000000000004 2012.5000000000002 0.69000000000000006 0.57500000000000007 11.500000000000002 0.69000000000000006 5.5000000000000009 0.71000000000000008 0.95000000000000007 0.63000000000000012 2013.5000000000002 4.5000000000000009 9.5000000000000018 10.500000000000002 2013.5000000000002 3.5000000000000004 7.5000000000000009 5.5000000000000009 4.5000000000000009 2012.5000000000002
decision_type=2 2 2 2 2 2 2 2 2 2 2 2 2 2 2 2 2 2 2 2 2 2 2 2 2 2 2 2 2 2
left_child=-1 2 23 -4 5 9 -6 -7 -9 19 -3 14 13 -13 15 -8 -17 -16 -12 -5 -20 -14 -23 24 25 27 -27 28 -2 -30
right_child=1 10 3 4 6 7 11 8 -10 -11 18 12 21 -15 17 16 -18 -19 20 -21 -22 22 -24 -25 -26 26 -28 -29 29 -31
leaf_value=-0.0092849001288413998 0.018598866916685549 -0.0035698064666833036 0.060007110805056864 0.04938651435338462 -0.025137330150675985 0.046126351817437107 0.08841805837209965 -0.12984462678432465 0.0044200699769514932 0.058977232452811258 0.026865291316405877 0.042353383803983097 0.02209819291303362 -0.013217787617738081 -0.053111431105763364 0.013680141244725158 0.10878599651392784 0.044809244583931665 0.0027586105616692167 0.020950365659756581 -0.0023220932051122418 0.016754216059841693 0.093508530158836117 0.10233601158718919 0.081478737062888509 0.10762310290388251 0.018641344686241255 -0.071582956058052136 0.30229964802071219 0.063388054181228989
leaf_weight=73808 558 155780 3344 1711 914 1008 612 64 2701 2885 1084 736 2837 2673 186 662 111 155 54311 2115 61802 594 520 915 3475 743 460 118 63 55
leaf_count=73808 558 155780 3344 1711 914 1008 612 64 2701 2885 1084 736 2837 2673 186 662 111 155 54311 2115 61802 594 520 915 3475 743 460 118 63 55
internal_value=2.57397e-11 0.00226028 0.0399129 0.0300567 0.0251674 0.0332968 0.0166444 0.0132849 0.00131232 0.0445477 -0.00190738 0.0208475 0.0159117 -0.00122002 0.0418946 0.0543273 0.027337 -0.00860203 0.000302353 0.0336671 5.43685e-05 0.0306932 0.0525821 0.0766835 0.072394 0.0565857 0.0735985 0.0308093 0.0486825 0.190943
internal_weight=377000 303192 30215 23828 20484 10484 10000 3773 2765 6711 272977 9086 7360 3409 1726 1385 773 341 117197 3826 116113 3951 1114 6387 5472 1997 1203 794 676 118
internal_count=377000 303192 30215 23828 20484 10484 10000 3773 2765 6711 272977 9086 7360 3409 1726 1385 773 341 117197 3826 116113 3951 1114 6387 5472 1997 1203 794 676 118
is_linear=0
shrinkage=0.05


Tree=32
num_leaves=31
num_cat=0
split_feature=0 0 0 3 1 0 3 0 0 3 0 0 0 0 3 0 0 0 0 0 1 0 2 3 0 0 0 0 0 0
split_gain=2856.2 17181.4 3906.05 1303.91 391.177 382.158 417.237 380.752 714.536 369.117 354.871 339.538 2196.31 6287.66 1389.11 534.176 522.167 1670.43 866.258 683.848 566.581 476.483 406.185 417.783 401.174 1131.91 474.292 585.95 443.666 8323.76
threshold=1.0000000180025095e-35 0.76000000000000012 0.49000000000000005 2012.5000000000002 3.5000000000000004 0.9900000000000001 2011.5000000000002 0.97500000000000009 0.96500000000000008 2012.5000000000002 0.71000000000000008 8.9650000000000016 9.9750000000000032 9.9450000000000021 2013.5000000000002 9.2000000000000011 4.6500000000000012 4.6100000000000003 5.9750000000000005 8.5000000000000018 4.5000000000000009 5.830000000000001 5.5000000000000009 2012.5000000000002 2.8600000000000003 2.9000000000000004 1.925 1.7250000000000003 3.9550000000000005 3.8250000000000006
decision_type=2 2 2 2 2 2 2 2 2 2 2 2 2 2 2 2 2 2 2 2 2 2 2 2 2 2 2 2 2 2
left_child=-1 2 -2 4 -4 7 -7 8 -3 -9 -5 16 13 15 22 -13 17 24 21 -20 -19 -18 -15 -24 26 -26 27 -8 29 -27
right_child=1 5 3 10 -6 6 11 9 -10 -11 -12 12 -14 14 -16 -17 18 20 19 -21 -22 -23 23 -25 25 28 -28 -29 -30 -31
leaf_value=-0.0088206551969051365 0.072849344266913196 0.011735983125986778 0.035515131381567498 0.01789742157045323 0.057842765905006865 0.0038031173021457476 -0.0074127894698791793 -0.0025236087675155395 -0.035530574375873744 0.038612417948808646 0.044770022124113629 0.012785359105231296 -0.0038049151679051861 0.10293828855843434 0.066042816023597822 -0.010063608423871322 -0.0093726414637406059 0.036514455691812941 -0.0001380582391346217 -0.018130833989243766 0.11481729970762022 -0.022837140181332427 0.22869503465350546 0.13377958324115738 0.027466640033577912 -0.0025468693009356139 -0.011293346382772242 0.0089058793189056764 -0.0081411832707813624 0.15578690361419351
leaf_weight=73808 6387 3562 4563 14079 3441 27002 13472 804 1031 1695 1346 5532 62765 303 1571 4758 21008 805 38045 6132 324 9561 214 253 3725 25495 20065 9297 15099 858
leaf_count=73808 6387 3562 4563 14079 3441 27002 13472 804 1031 1695 1346 5532 62765 303 1571 4758 21008 805 38045 6132 324 9561 214 253 3725 25495 20065 9297 15099 858
internal_value=-6.81275e-11 0.00214727 0.0381882 0.0287392 0.045114 -0.00178357 -0.00208865 0.00967155 0.00112596 0.0253778 0.0202423 -0.00275352 2.33566e-05 0.0190465 0.0930075 0.00222021 -0.00403102 -0.00144661 -0.00711312 -0.00263555 0.0589858 -0.0135839 0.148022 0.177274 -0.00222183 0.00106519 -0.00568866 -0.000749578 -0.00130732 0.00260816
internal_weight=377000 303192 29816 23429 8004 273376 266284 7092 4593 2499 15425 239282 75396 12631 2341 10290 163886 89140 74746 44177 1129 30569 770 467 88011 45177 42834 22769 41452 26353
internal_count=377000 303192 29816 23429 8004 273376 266284 7092 4593 2499 15425 239282 75396 12631 2341 10290 163886 89140 74746 44177 1129 30569 770 467 88011 45177 42834 22769 41452 26353
is_linear=0
shrinkage=0.05


Tree=33
num_leaves=31
num_cat=0
split_feature=0 0 0 3 1 1 1 2 0 2 0 1 0 0 0 2 0 0 1 2 3 2 3 0 3 2 2 2 1 2
split_gain=2577.72 15506.2 3525.21 1176.78 372.544 359.339 566.052 630.751 420.387 387.48 432.998 375.22 360.955 332.426 914.494 568.973 527.936 445.948 413.32 521.684 349.989 513.385 323.957 368.863 305.103 767.063 552.121 389.123 393.549 299.132
threshold=1.0000000180025095e-35 0.76000000000000012 0.49000000000000005 2012.5000000000002 4.5000000000000009 4.5000000000000009 5.5000000000000009 2.5000000000000004 0.69000000000000006 1.5000000000000002 0.52000000000000013 1.0000000180025095e-35 0.63000000000000012 0.69000000000000006 0.63000000000000012 6.5000000000000009 0.57500000000000007 0.52000000000000013 4.5000000000000009 9.5000000000000018 2013.5000000000002 8.5000000000000018 2011.5000000000002 0.69000000000000006 2011.5000000000002 6.5000000000000009 11.500000000000002 5.5000000000000009 1.5000000000000002 3.5000000000000004
decision_type=2 2 2 2 2 2 2 2 2 2 2 2 2 2 2 2 2 2 2 2 2 2 2 2 2 2 2 2 2 2
left_child=-1 2 -2 5 -3 8 7 -7 9 11 24 -4 -8 14 15 17 -17 -5 -15 -20 21 -18 23 -9 26 27 -11 -26 -29 -12
right_child=1 4 3 13 -6 6 12 22 -10 10 29 -13 -14 18 -16 16 20 -19 19 -21 -22 -23 -24 -25 25 -27 -28 28 -30 -31
leaf_value=-0.0083796225488185893 0.069206877823578442 -0.0028644651954179909 -0.016868565380573273 -0.070113375451829704 0.0012172875415051977 0.19594472493780288 0.013696988082096063 0.12854245075706575 0.015897741183041183 0.032861013040920491 -0.0050080748881364979 0.15734025743406488 0.071965977433137596 0.018926799376982693 -0.015352111009616788 0.039340841871402833 -0.046721095423544606 0.043155508271505362 0.031224373797390688 0.087809036460776757 -0.036903851148267483 0.041626513712718839 0.046634763474641766 0.026677601177151462 0.035662575450929247 -0.026984024179669525 0.16680375525558538 0.017603367194533349 0.24046357718224709 0.064010386253961299
leaf_weight=73808 6387 195010 40 90 78366 114 736 351 1771 612 172 136 416 5989 2218 736 248 2520 1880 520 736 488 568 119 348 650 88 32 52 1799
leaf_count=73808 6387 195010 40 90 78366 114 736 351 1771 612 172 136 416 5989 2218 736 248 2520 1880 520 736 488 568 119 348 650 88 32 52 1799
internal_value=-6.05911e-11 0.00203991 0.0362788 0.0273022 -0.00169439 0.0428583 0.0595217 0.0843049 0.0361228 0.0452392 0.0418389 0.117747 0.0347386 0.0192302 0.0112154 0.0234459 0.00476473 0.0392497 0.0259525 0.0434844 -0.0125233 0.0118572 0.0720439 0.102751 0.0239776 0.00733676 0.0496995 0.0589768 0.155564 0.0579875
internal_weight=377000 303192 29816 23429 273376 8004 2304 1152 5700 3929 3753 176 1152 15425 7036 4818 2208 2610 8389 2400 1472 736 1038 470 1782 1082 700 432 84 1971
internal_count=377000 303192 29816 23429 273376 8004 2304 1152 5700 3929 3753 176 1152 15425 7036 4818 2208 2610 8389 2400 1472 736 1038 470 1782 1082 700 432 84 1971
is_linear=0
shrinkage=0.05


Tree=34
num_leaves=31
num_cat=0
split_feature=0 0 0 3 2 3 0 0 0 1 3 0 0 0 0 0 0 0 0 0 0 0 0 0 2 0 0 3 0 0
split_gain=2326.39 14003.6 3216.55 1073.98 476.988 779.821 621.4 495.205 417.604 354.809 352.738 446.4 4387.88 442.927 1520.59 355.871 1770.1 745.69 774.274 544.903 415.448 1185.19 1522.06 480.928 392.474 352.387 334.245 318.616 293.969 575.476
